{"learner":{"attributes":{"scikit_learn":"{\"_estimator_type\": \"classifier\"}"},"feature_names":[],"feature_types":[],"gradient_booster":{"model":{"gbtree_model_param":{"num_parallel_tree":"1","num_trees":"300"},"iteration_indptr":[0,1,2,3,4,5,6,7,8,9,10,11,12,13,14,15,16,17,18,19,20,21,22,23,24,25,26,27,28,29,30,31,32,33,34,35,36,37,38,39,40,41,42,43,44,45,46,47,48,49,50,51,52,53,54,55,56,57,58,59,60,61,62,63,64,65,66,67,68,69,70,71,72,73,74,75,76,77,78,79,80,81,82,83,84,85,86,87,88,89,90,91,92,93,94,95,96,97,98,99,100,101,102,103,104,105,106,107,108,109,110,111,112,113,114,115,116,117,118,119,120,121,122,123,124,125,126,127,128,129,130,131,132,133,134,135,136,137,138,139,140,141,142,143,144,145,146,147,148,149,150,151,152,153,154,155,156,157,158,159,160,161,162,163,164,165,166,167,168,169,170,171,172,173,174,175,176,177,178,179,180,181,182,183,184,185,186,187,188,189,190,191,192,193,194,195,196,197,198,199,200,201,202,203,204,205,206,207,208,209,210,211,212,213,214,215,216,217,218,219,220,221,222,223,224,225,226,227,228,229,230,231,232,233,234,235,236,237,238,239,240,241,242,243,244,245,246,247,248,249,250,251,252,253,254,255,256,257,258,259,260,261,262,263,264,265,266,267,268,269,270,271,272,273,274,275,276,277,278,279,280,281,282,283,284,285,286,287,288,289,290,291,292,293,294,295,296,297,298,299,300],"tree_info":[0,0,0,0,0,0,0,0,0,0,0,0,0,0,0,0,0,0,0,0,0,0,0,0,0,0,0,0,0,0,0,0,0,0,0,0,0,0,0,0,0,0,0,0,0,0,0,0,0,0,0,0,0,0,0,0,0,0,0,0,0,0,0,0,0,0,0,0,0,0,0,0,0,0,0,0,0,0,0,0,0,0,0,0,0,0,0,0,0,0,0,0,0,0,0,0,0,0,0,0,0,0,0,0,0,0,0,0,0,0,0,0,0,0,0,0,0,0,0,0,0,0,0,0,0,0,0,0,0,0,0,0,0,0,0,0,0,0,0,0,0,0,0,0,0,0,0,0,0,0,0,0,0,0,0,0,0,0,0,0,0,0,0,0,0,0,0,0,0,0,0,0,0,0,0,0,0,0,0,0,0,0,0,0,0,0,0,0,0,0,0,0,0,0,0,0,0,0,0,0,0,0,0,0,0,0,0,0,0,0,0,0,0,0,0,0,0,0,0,0,0,0,0,0,0,0,0,0,0,0,0,0,0,0,0,0,0,0,0,0,0,0,0,0,0,0,0,0,0,0,0,0,0,0,0,0,0,0,0,0,0,0,0,0,0,0,0,0,0,0,0,0,0,0,0,0,0,0,0,0,0,0,0,0,0,0,0,0,0,0,0,0,0,0,0,0,0,0,0,0],"trees":[{"base_weights":[6.346898E-2,-3.8825434E-1,9.0395373E-1,-3.4402292E-2,-1.4454136E0,5.719381E-1,1.2678018E0,-4.3689013E-1,5.062721E-1,-1.7688112E0,3.2930996E-2,8.212252E-1,-3.7938285E-1,1.877363E-2,3.9942194E-2,-5.6966007E-2,-1.4738638E0,1.006785E0,-2.1327288E-1,8.5672485E-3,-2.251553E0,1.0308778E0,-1.2954997E-2,-3.751312E-2,1.4007424E-2,1.4662132E-2,-3.3579405E-2,-6.2064163E-2,1.3070984E-2,3.8775932E-2,7.0810425E-3,-3.8767952E-2,1.1475328E-2,-4.3080006E-2,-8.531638E-2,3.6444888E-2,4.021065E-3],"categories":[],"categories_nodes":[],"categories_segments":[],"categories_sizes":[],"default_left":[0,0,0,0,0,0,0,0,0,0,0,0,0,0,0,0,0,0,0,0,0,0,0,0,0,0,0,0,0,0,0,0,0,0,0,0,0],"id":0,"left_children":[1,3,5,7,9,11,13,15,17,19,-1,21,23,-1,-1,25,27,29,31,-1,33,35,-1,-1,-1,-1,-1,-1,-1,-1,-1,-1,-1,-1,-1,-1,-1],"loss_changes":[3.4297174E2,2.1913799E2,3.615149E1,9.666164E1,1.24992096E2,4.088541E1,3.815277E0,9.980178E1,6.885499E1,1.3208719E2,0E0,3.6525543E1,2.8127384E1,0E0,0E0,1.107672E2,7.961426E1,2.3654922E1,5.209577E1,0E0,4.20719E1,1.8475075E1,0E0,0E0,0E0,0E0,0E0,0E0,0E0,0E0,0E0,0E0,0E0,0E0,0E0,0E0,0E0],"parents":[2147483647,0,0,1,1,2,2,3,3,4,4,5,5,6,6,7,7,8,8,9,9,11,11,12,12,15,15,16,16,17,17,18,18,20,20,21,21],"right_children":[2,4,6,8,10,12,14,16,18,20,-1,22,24,-1,-1,26,28,30,32,-1,34,36,-1,-1,-1,-1,-1,-1,-1,-1,-1,-1,-1,-1,-1,-1,-1],"split_conditions":[1.8371173E0,2.9E1,3.558721E0,6.5182704E-1,8.9405453E-1,2.89E1,1.1E1,1.55E1,1.165E-2,-7E-3,3.2930996E-2,3.6E0,2.9666666E1,1.877363E-2,3.9942194E-2,3.04E-2,-3.478925E-2,1.0008E2,-1.28E-2,8.5672485E-3,5.86E-1,4.89E-1,-1.2954997E-2,-3.751312E-2,1.4007424E-2,1.4662132E-2,-3.3579405E-2,-6.2064163E-2,1.3070984E-2,3.8775932E-2,7.0810425E-3,-3.8767952E-2,1.1475328E-2,-4.3080006E-2,-8.531638E-2,3.6444888E-2,4.021065E-3],"split_indices":[1,141,1,248,248,10,0,97,77,105,0,93,10,0,0,245,245,162,65,0,165,35,0,0,0,0,0,0,0,0,0,0,0,0,0,0,0],"split_type":[0,0,0,0,0,0,0,0,0,0,0,0,0,0,0,0,0,0,0,0,0,0,0,0,0,0,0,0,0,0,0,0,0,0,0,0,0],"sum_hessian":[8.9909357E2,5.852609E2,3.1383264E2,4.4024957E2,1.4501134E2,1.6721518E2,1.4661745E2,2.5291432E2,1.8733525E2,1.2929617E2,1.5715172E1,1.329622E2,3.4252975E1,1.5595311E1,1.3102214E2,1.8685426E2,6.606007E1,1.10258415E2,7.7076836E1,2.4638489E1,1.0465768E2,1.1441342E2,1.8548786E1,1.6583626E1,1.7669352E1,1.2397079E2,6.2883472E1,5.0360214E1,1.5699856E1,7.916558E1,3.1092836E1,2.6766665E1,5.031017E1,4.7126312E1,5.753137E1,9.407419E1,2.0339231E1],"tree_param":{"num_deleted":"0","num_feature":"249","num_nodes":"37","size_leaf_vector":"1"}},{"base_weights":[-3.803713E-4,-4.644626E-1,8.657952E-1,-2.1813446E-1,-2.0883584E0,5.28929E-1,1.2323334E0,-6.0221016E-1,3.7213758E-1,-8.030227E-2,7.1169906E-3,9.465632E-2,1.0183706E0,1.7940126E-2,1.3274982E0,-7.312724E-1,3.0771693E-2,6.4117885E-1,-8.635914E-1,4.8809025E-1,-4.5794476E-2,3.8225453E-2,1.0810487E-2,2.4840036E-2,4.1631486E-2,3.1054718E-2,-2.5910204E-2,-1.0565368E-2,2.9107807E-2,-5.2504253E-2,9.715421E-3,2.2748493E-2,-1.3625985E-2],"categories":[],"categories_nodes":[],"categories_segments":[],"categories_sizes":[],"default_left":[0,0,0,0,0,0,0,0,0,0,0,0,0,0,0,0,0,0,0,0,0,0,0,0,0,0,0,0,0,0,0,0,0],"id":1,"left_children":[1,3,5,7,9,11,13,15,17,-1,-1,19,21,-1,23,25,-1,27,29,31,-1,-1,-1,-1,-1,-1,-1,-1,-1,-1,-1,-1,-1],"loss_changes":[3.657544E2,2.3555527E2,3.734752E1,1.1776766E2,1.0831476E2,3.545344E1,6.891403E0,6.746634E1,6.912757E1,0E0,0E0,5.999982E1,1.18984375E1,0E0,8.9959717E-1,7.017685E1,0E0,5.6286507E1,4.079516E1,2.0098381E1,0E0,0E0,0E0,0E0,0E0,0E0,0E0,0E0,0E0,0E0,0E0,0E0,0E0],"parents":[2147483647,0,0,1,1,2,2,3,3,4,4,5,5,6,6,7,7,8,8,11,11,12,12,14,14,15,15,17,17,18,18,19,19],"right_children":[2,4,6,8,10,12,14,16,18,-1,-1,20,22,-1,24,26,-1,28,30,32,-1,-1,-1,-1,-1,-1,-1,-1,-1,-1,-1,-1,-1],"split_conditions":[1.8333334E0,1E1,2.4E1,4.751E-1,7.567E-1,1.4E0,2.445E1,9.351447E-1,1E0,-8.030227E-2,7.1169906E-3,9.8E0,6.57E-1,1.7940126E-2,1E1,5.2806545E-2,3.0771693E-2,-8.7E-1,2.5847033E-1,2.85E0,-4.5794476E-2,3.8225453E-2,1.0810487E-2,2.4840036E-2,4.1631486E-2,3.1054718E-2,-2.5910204E-2,-1.0565368E-2,2.9107807E-2,-5.2504253E-2,9.715421E-3,2.2748493E-2,-1.3625985E-2],"split_indices":[1,135,176,133,248,67,21,248,172,0,0,127,44,0,0,248,0,78,248,93,0,0,0,0,0,0,0,0,0,0,0,0,0],"split_type":[0,0,0,0,0,0,0,0,0,0,0,0,0,0,0,0,0,0,0,0,0,0,0,0,0,0,0,0,0,0,0,0,0],"sum_hessian":[9.0618823E2,5.9087915E2,3.1530914E2,5.151844E2,7.569473E1,1.6727757E2,1.4803156E2,3.1238855E2,2.0279587E2,6.027254E1,1.5422189E1,9.022357E1,7.7054E1,2.162283E1,1.2640873E2,2.906331E2,2.1755459E1,1.6752711E2,3.5268745E1,7.387721E1,1.6346352E1,5.380728E1,2.3246721E1,1.7309757E1,1.09098976E2,1.9156322E1,2.7147675E2,4.1426376E1,1.2610074E2,1.9794737E1,1.5474008E1,5.7965168E1,1.5912047E1],"tree_param":{"num_deleted":"0","num_feature":"249","num_nodes":"33","size_leaf_vector":"1"}},{"base_weights":[5.8012515E-2,-4.1616553E-1,6.6900736E-1,-5.7881844E-1,1.1371441E0,8.5188013E-1,-4.935915E-2,-2.850999E-1,-1.5516567E0,2.0608753E-2,3.877114E-2,5.8795977E-1,1.2835712E0,-5.118807E-1,5.644296E-1,-5.775842E-1,-2.4154973E0,8.3376193E-1,-1.723501E-1,4.1146692E-2,1.8765483E-2,-1.8290428E-2,2.925605E-2,3.123722E-2,8.6563284E-4,-4.0634807E-2,1.0087565E-2,-8.0155894E-2,-4.9830288E-2,3.0711947E-2,-1.0757036E-2,1.7766852E-2,-3.1300675E-2],"categories":[],"categories_nodes":[],"categories_segments":[],"categories_sizes":[],"default_left":[0,0,0,0,0,0,0,0,0,0,0,0,0,0,0,0,0,0,0,0,0,0,0,0,0,0,0,0,0,0,0,0,0],"id":2,"left_children":[1,3,5,7,9,11,-1,13,15,-1,-1,17,19,21,23,25,27,29,31,-1,-1,-1,-1,-1,-1,-1,-1,-1,-1,-1,-1,-1,-1],"loss_changes":[2.62377E2,1.2990643E2,1.7008199E2,1.3081099E2,1.0412407E0,3.9886078E1,0E0,6.956764E1,8.60455E1,0E0,0E0,4.3967155E1,5.651932E0,4.238897E1,1.9062967E1,3.8784348E1,6.0321045E-1,4.0903435E1,4.0130074E1,0E0,0E0,0E0,0E0,0E0,0E0,0E0,0E0,0E0,0E0,0E0,0E0,0E0,0E0],"parents":[2147483647,0,0,1,1,2,2,3,3,4,4,5,5,7,7,8,8,11,11,12,12,13,13,14,14,15,15,16,16,17,17,18,18],"right_children":[2,4,6,8,10,12,-1,14,16,-1,-1,18,20,22,24,26,28,30,32,-1,-1,-1,-1,-1,-1,-1,-1,-1,-1,-1,-1,-1,-1],"split_conditions":[8E0,9.328E-1,3.19E1,6.7E0,1.169E2,2.4E1,-4.935915E-2,2.07E-2,2.96E1,2.0608753E-2,3.877114E-2,1.43E1,5.95E0,1.6E1,1.3615385E1,9.2E0,6E-1,2E1,8E-1,4.1146692E-2,1.8765483E-2,-1.8290428E-2,2.925605E-2,3.123722E-2,8.6563284E-4,-4.0634807E-2,1.0087565E-2,-8.0155894E-2,-4.9830288E-2,3.0711947E-2,-1.0757036E-2,1.7766852E-2,-3.1300675E-2],"split_indices":[0,248,10,124,161,176,0,65,141,0,0,139,3,232,139,146,239,232,92,0,0,0,0,0,0,0,0,0,0,0,0,0,0],"split_type":[0,0,0,0,0,0,0,0,0,0,0,0,0,0,0,0,0,0,0,0,0,0,0,0,0,0,0,0,0,0,0,0,0],"sum_hessian":[9.0143787E2,5.0762744E2,3.9381042E2,4.6082098E2,4.6806442E1,3.6626245E2,2.7547958E1,3.561784E2,1.046426E2,1.5278842E1,3.15276E1,2.3066258E2,1.3559987E2,2.8203702E2,7.414138E1,5.0915012E1,5.3727585E1,1.7446182E2,5.620076E1,1.1729285E2,1.8307028E1,2.6592953E2,1.6107494E1,3.7927174E1,3.6214207E1,2.717539E1,2.3739624E1,3.6011204E1,1.7716383E1,1.5094647E2,2.3515347E1,3.0086336E1,2.6114424E1],"tree_param":{"num_deleted":"0","num_feature":"249","num_nodes":"33","size_leaf_vector":"1"}},{"base_weights":[3.1718027E-2,-3.8613117E-1,8.1607616E-1,-4.9636535E-2,-1.3715057E0,5.089891E-1,1.2753837E0,-5.023761E-1,3.704845E-1,-1.6621172E0,3.154811E-2,8.959814E-1,-5.6575615E-2,4.0574834E-2,2.2114009E-2,6.0920197E-1,-7.594298E-1,5.8969826E-1,-8.193826E-1,3.6277948E-3,-2.0537398E0,-5.933132E-3,1.0767407E0,-7.19263E-1,7.029247E-1,-1.7211876E-3,3.1853624E-2,-8.425441E-3,-4.1617498E-2,9.357425E-3,3.9266888E-2,-5.0623164E-2,1.0126593E-2,-2.8946824E-2,-7.177883E-2,3.6495503E-2,1.2006526E-2,-4.4017106E-2,6.3695298E-3,3.331681E-2,3.2788094E-3],"categories":[],"categories_nodes":[],"categories_segments":[],"categories_sizes":[],"default_left":[0,0,0,0,0,0,0,0,0,0,0,0,0,0,0,0,0,0,0,0,0,0,0,0,0,0,0,0,0,0,0,0,0,0,0,0,0,0,0,0,0],"id":3,"left_children":[1,3,5,7,9,11,13,15,17,19,-1,21,23,-1,-1,25,27,29,31,-1,33,-1,35,37,39,-1,-1,-1,-1,-1,-1,-1,-1,-1,-1,-1,-1,-1,-1,-1,-1],"loss_changes":[2.9616412E2,1.947886E2,4.2478592E1,8.438537E1,1.0907791E2,4.237656E1,2.5325623E0,6.202851E1,6.0837658E1,9.501773E1,0E0,2.3313438E1,4.106474E1,0E0,0E0,1.2799668E1,5.1200134E1,3.7739822E1,3.807476E1,0E0,3.5169678E1,0E0,7.8790283E0,3.144468E1,8.557062E0,0E0,0E0,0E0,0E0,0E0,0E0,0E0,0E0,0E0,0E0,0E0,0E0,0E0,0E0,0E0,0E0],"parents":[2147483647,0,0,1,1,2,2,3,3,4,4,5,5,6,6,7,7,8,8,9,9,11,11,12,12,15,15,16,16,17,17,18,18,20,20,22,22,23,23,24,24],"right_children":[2,4,6,8,10,12,14,16,18,20,-1,22,24,-1,-1,26,28,30,32,-1,34,-1,36,38,40,-1,-1,-1,-1,-1,-1,-1,-1,-1,-1,-1,-1,-1,-1,-1,-1],"split_conditions":[1.8333334E0,2.9E1,9.260417E0,4.664E-1,8.9069074E-1,4.745E-1,8.586691E-1,-1.6E0,1E0,-7E-3,3.154811E-2,7.317E-1,4.877E-1,4.0574834E-2,2.2114009E-2,-3.3E0,3.547E-1,3.5E0,2.5847033E-1,3.6277948E-3,6.5E0,-5.933132E-3,8.088E-1,0E0,2.3684211E-1,-1.7211876E-3,3.1853624E-2,-8.425441E-3,-4.1617498E-2,9.357425E-3,3.9266888E-2,-5.0623164E-2,1.0126593E-2,-2.8946824E-2,-7.177883E-2,3.6495503E-2,1.2006526E-2,-4.4017106E-2,6.3695298E-3,3.331681E-2,3.2788094E-3],"split_indices":[1,141,2,144,248,13,247,92,172,105,0,123,13,0,0,102,12,2,248,0,124,0,123,100,181,0,0,0,0,0,0,0,0,0,0,0,0,0,0,0,0],"split_type":[0,0,0,0,0,0,0,0,0,0,0,0,0,0,0,0,0,0,0,0,0,0,0,0,0,0,0,0,0,0,0,0,0,0,0,0,0,0,0,0,0],"sum_hessian":[8.993298E2,5.871642E2,3.121656E2,4.3948877E2,1.4767542E2,1.9000215E2,1.2216346E2,2.1168784E2,2.2780093E2,1.325323E2,1.5143122E1,1.1243178E2,7.7570366E1,1.0372128E2,1.8442179E1,3.9024994E1,1.7266284E2,1.9342621E2,3.437472E1,2.3977938E1,1.0855436E2,1.568371E1,9.674807E1,4.1692944E1,3.5877422E1,1.6219814E1,2.2805182E1,9.9890045E1,7.277279E1,1.4190222E2,5.1524E1,1.9263453E1,1.5111268E1,2.7803041E1,8.075132E1,7.849122E1,1.8256853E1,2.2666145E1,1.9026798E1,1.9938839E1,1.5938583E1],"tree_param":{"num_deleted":"0","num_feature":"249","num_nodes":"41","size_leaf_vector":"1"}},{"base_weights":[2.948333E-2,-3.779907E-1,8.228084E-1,-1.5353425E0,-8.3333865E-2,4.6869618E-1,1.218592E0,-2.3291814E0,5.1728946E-1,7.167786E-2,-1.5732484E0,7.667325E-1,-6.657937E-1,1.322764E-2,3.9107196E-2,-7.708243E-2,-3.089192E-2,-1.1833456E-2,3.786714E-2,-6.371226E-1,3.0020556E-1,-2.2481464E-2,-5.973526E-2,9.942141E-1,-1.7715526E-3,-4.3465808E-2,5.581415E-3,-4.557737E-2,-1.136253E-3,-8.468817E-5,2.2221275E-2,3.423925E-2,2.9492797E-3],"categories":[],"categories_nodes":[],"categories_segments":[],"categories_sizes":[],"default_left":[0,0,0,0,0,0,0,0,0,0,0,0,0,0,0,0,0,0,0,0,0,0,0,0,0,0,0,0,0,0,0,0,0],"id":4,"left_children":[1,3,5,7,9,11,13,15,17,19,21,23,25,-1,-1,-1,-1,-1,-1,27,29,-1,-1,31,-1,-1,-1,-1,-1,-1,-1,-1,-1],"loss_changes":[2.935627E2,2.0371735E2,4.155313E1,2.0068036E2,1.1158091E2,5.729367E1,7.8376923E0,2.1091156E1,2.5281075E1,7.101526E1,1.1867508E1,2.5357925E1,2.457668E1,0E0,0E0,0E0,0E0,0E0,0E0,5.5866264E1,4.4528503E1,0E0,0E0,1.3184341E1,0E0,0E0,0E0,0E0,0E0,0E0,0E0,0E0,0E0],"parents":[2147483647,0,0,1,1,2,2,3,3,4,4,5,5,6,6,7,7,8,8,9,9,10,10,11,11,12,12,19,19,20,20,23,23],"right_children":[2,4,6,8,10,12,14,16,18,20,22,24,26,-1,-1,-1,-1,-1,-1,28,30,-1,-1,32,-1,-1,-1,-1,-1,-1,-1,-1,-1],"split_conditions":[1.8333334E0,7.2895E-1,2.4E1,-3.478925E-2,5E0,2.89E1,2.39E1,1E-1,1.25E2,-1.8E-2,1E0,1.4642858E1,2.97E1,1.322764E-2,3.9107196E-2,-7.708243E-2,-3.089192E-2,-1.1833456E-2,3.786714E-2,-1.1E-2,6.5182704E-1,-2.2481464E-2,-5.973526E-2,4.922E-1,-1.7715526E-3,-4.3465808E-2,5.581415E-3,-4.557737E-2,-1.136253E-3,-8.468817E-5,2.2221275E-2,3.423925E-2,2.9492797E-3],"split_indices":[1,25,176,245,166,10,10,239,244,87,242,139,10,0,0,0,0,0,0,105,248,0,0,35,0,0,0,0,0,0,0,0,0],"split_type":[0,0,0,0,0,0,0,0,0,0,0,0,0,0,0,0,0,0,0,0,0,0,0,0,0,0,0,0,0,0,0,0,0],"sum_hessian":[9.0379675E2,5.9754816E2,3.062486E2,1.19345215E2,4.7820294E2,1.6433902E2,1.4190956E2,8.5972664E1,3.3372547E1,4.3468088E2,4.3522064E1,1.3087123E2,3.346779E1,1.5546753E1,1.2636281E2,7.071408E1,1.5258583E1,1.5248406E1,1.812414E1,1.04786606E2,3.2989426E2,1.6769026E1,2.6753038E1,1.0257101E2,2.8300222E1,1.6890982E1,1.6576807E1,4.094391E1,6.3842693E1,1.962188E2,1.3367546E2,8.7347206E1,1.5223806E1],"tree_param":{"num_deleted":"0","num_feature":"249","num_nodes":"33","size_leaf_vector":"1"}},{"base_weights":[3.42358E-2,-3.6854368E-1,8.0751324E-1,-6.7470044E-2,-1.2318239E0,5.1956403E-1,1.2479565E0,-4.070532E-1,4.7786012E-1,-1.6383654E0,2.8276356E-2,8.75503E-1,-3.4121666E-2,4.0061116E-2,2.5427224E-2,-1.6100891E0,-1.5746145E-1,-7.152063E-2,1.1651092E0,-1.978928E0,-8.94498E-3,1.1098434E0,1.094316E-3,-6.060692E-1,2.6849158E-2,-6.448692E-2,-2.4006944E-2,-2.6101943E-2,7.303403E-3,9.327906E-3,-3.938983E-2,4.041656E-2,1.5364868E-2,-3.438336E-2,-7.043181E-2,3.6265213E-2,1.7607667E-2,5.395605E-3,-4.6592254E-2],"categories":[],"categories_nodes":[],"categories_segments":[],"categories_sizes":[],"default_left":[0,0,0,0,0,0,0,0,0,0,0,0,0,0,0,0,0,0,0,0,0,0,0,0,0,0,0,0,0,0,0,0,0,0,0,0,0,0,0],"id":5,"left_children":[1,3,5,7,9,11,13,15,17,19,-1,21,23,-1,-1,25,27,29,31,33,-1,35,-1,37,-1,-1,-1,-1,-1,-1,-1,-1,-1,-1,-1,-1,-1,-1,-1],"loss_changes":[2.809025E2,1.5346475E2,3.7357407E1,8.2170395E1,1.3841757E2,3.7887577E1,1.2919159E0,8.1127716E1,6.471622E1,5.7300446E1,0E0,2.2473312E1,4.1491333E1,0E0,0E0,1.6031403E1,6.604731E1,4.677946E1,7.0901947E0,2.515268E1,0E0,2.736946E0,0E0,3.7111618E1,0E0,0E0,0E0,0E0,0E0,0E0,0E0,0E0,0E0,0E0,0E0,0E0,0E0,0E0,0E0],"parents":[2147483647,0,0,1,1,2,2,3,3,4,4,5,5,6,6,7,7,8,8,9,9,11,11,12,12,15,15,16,16,17,17,18,18,19,19,21,21,23,23],"right_children":[2,4,6,8,10,12,14,16,18,20,-1,22,24,-1,-1,26,28,30,32,34,-1,36,-1,38,-1,-1,-1,-1,-1,-1,-1,-1,-1,-1,-1,-1,-1,-1,-1],"split_conditions":[1.7395415E0,6.7E0,9.260417E0,6.5182704E-1,8.9405453E-1,8E-1,8.0804527E-1,3E0,4.82E-1,-1E0,2.8276356E-2,2.89E1,2.2E0,4.0061116E-2,2.5427224E-2,2E0,-1.38E-2,8E-1,1.28E1,3.6105E-1,-8.94498E-3,2.9E1,1.094316E-3,6.5E-1,2.6849158E-2,-6.448692E-2,-2.4006944E-2,-2.6101943E-2,7.303403E-3,9.327906E-3,-3.938983E-2,4.041656E-2,1.5364868E-2,-3.438336E-2,-7.043181E-2,3.6265213E-2,1.7607667E-2,5.395605E-3,-4.6592254E-2],"split_indices":[1,124,2,248,248,92,247,232,144,99,0,10,90,0,0,241,87,99,150,132,0,141,0,74,0,0,0,0,0,0,0,0,0,0,0,0,0,0,0],"split_type":[0,0,0,0,0,0,0,0,0,0,0,0,0,0,0,0,0,0,0,0,0,0,0,0,0,0,0,0,0,0,0,0,0,0,0,0,0,0,0],"sum_hessian":[8.975547E2,5.905907E2,3.0696402E2,4.3973465E2,1.5085603E2,1.8866238E2,1.1830165E2,2.716392E2,1.6809547E2,1.2762499E2,2.3231035E1,1.1446043E2,7.420196E1,9.265324E1,2.5648413E1,4.459361E1,2.2704558E2,9.41712E1,7.392428E1,1.0082658E2,2.6798414E1,8.868699E1,2.5773434E1,4.6558758E1,2.7643198E1,2.4556627E1,2.003698E1,8.117215E1,1.4587343E2,7.295422E1,2.1216976E1,5.5780758E1,1.8143518E1,3.3716766E1,6.710981E1,7.188156E1,1.6805426E1,2.6155563E1,2.0403194E1],"tree_param":{"num_deleted":"0","num_feature":"249","num_nodes":"39","size_leaf_vector":"1"}},{"base_weights":[2.5188055E-2,-1.9256358E-1,1.2015786E0,2.3236142E-3,-1.878087E0,1.2612644E0,1.862304E-2,-3.738868E-1,6.208453E-1,-6.7242816E-2,-1.7180301E-2,1.975051E-2,3.997169E-2,-6.249881E-1,4.1882777E-1,3.774876E-2,2.6938865E-1,-2.3420103E-2,9.419036E-3,-1.17152715E-2,2.4745347E-2,-9.546552E-3,2.1594431E-2],"categories":[],"categories_nodes":[],"categories_segments":[],"categories_sizes":[],"default_left":[0,0,0,0,0,0,0,0,0,0,0,0,0,0,0,0,0,0,0,0,0,0,0],"id":6,"left_children":[1,3,5,7,9,11,-1,13,15,-1,-1,-1,-1,17,19,-1,21,-1,-1,-1,-1,-1,-1],"loss_changes":[2.2973802E2,2.4882803E2,2.7263641E0,1.5860028E2,3.381671E1,2.9933624E0,0E0,8.4846725E1,5.665458E1,0E0,0E0,0E0,0E0,4.778321E1,3.4536316E1,0E0,4.5341625E1,0E0,0E0,0E0,0E0,0E0,0E0],"parents":[2147483647,0,0,1,1,2,2,3,3,4,4,5,5,7,7,8,8,13,13,14,14,16,16],"right_children":[2,4,6,8,10,12,-1,14,16,-1,-1,-1,-1,18,20,-1,22,-1,-1,-1,-1,-1,-1],"split_conditions":[9.328E-1,1E1,8.344E-1,8E0,8E0,7.282E-1,1.862304E-2,2.3E-2,1.228708E-1,-6.7242816E-2,-1.7180301E-2,1.975051E-2,3.997169E-2,1.78E-2,1.155E2,3.774876E-2,-1.4E0,-2.3420103E-2,9.419036E-3,-1.17152715E-2,2.4745347E-2,-9.546552E-3,2.1594431E-2],"split_indices":[248,135,145,0,50,145,0,87,248,0,0,0,0,75,157,0,89,0,0,0,0,0,0],"split_type":[0,0,0,0,0,0,0,0,0,0,0,0,0,0,0,0,0,0,0,0,0,0,0],"sum_hessian":[8.9186194E2,7.537579E2,1.381041E2,6.7726855E2,7.6489334E1,1.2264147E2,1.5462625E1,4.21314E2,2.5595454E2,5.8533577E1,1.7955757E1,1.5550813E1,1.0709065E2,3.205711E2,1.007429E2,8.8828964E1,1.6712558E2,2.75542E2,4.5029118E1,3.3434177E1,6.7308716E1,7.248526E1,9.464032E1],"tree_param":{"num_deleted":"0","num_feature":"249","num_nodes":"23","size_leaf_vector":"1"}},{"base_weights":[2.4846053E-2,-3.420569E-1,7.6099205E-1,-1.3982258E0,-7.44649E-2,4.708916E-1,1.2039883E0,-1.838166E0,-2.6180452E-1,7.5271375E-2,-1.4916499E0,8.7287205E-1,-1.280656E-1,3.913921E-2,2.3445847E-2,-1.898786E-2,-6.3172944E-2,-3.0525519E-2,1.1247836E-2,2.522684E-1,-7.850765E-1,-1.6655892E-2,-5.785061E-2,1.0915562E0,2.5391662E-3,-9.9681586E-1,6.6103584E-1,-1.7482853E-2,1.18058855E-2,-3.5889912E-2,1.7328436E-2,3.6149975E-2,2.1734202E-2,-3.3474993E-3,-5.1877346E-2,-0E0,3.1978663E-2],"categories":[],"categories_nodes":[],"categories_segments":[],"categories_sizes":[],"default_left":[0,0,0,0,0,0,0,0,0,0,0,0,0,0,0,0,0,0,0,0,0,0,0,0,0,0,0,0,0,0,0,0,0,0,0,0,0],"id":7,"left_children":[1,3,5,7,9,11,13,15,17,19,21,23,25,-1,-1,-1,-1,-1,-1,27,29,-1,-1,31,-1,33,35,-1,-1,-1,-1,-1,-1,-1,-1,-1,-1],"loss_changes":[2.4313617E2,1.6900095E2,3.6856384E1,5.890413E1,1.0277711E2,4.4914646E1,2.3028412E0,2.447876E1,1.8419405E1,6.678109E1,1.6039299E1,1.8608543E1,5.3256195E1,0E0,0E0,0E0,0E0,0E0,0E0,4.336592E1,4.3463554E1,0E0,0E0,1.2766418E0,0E0,2.3032269E1,1.0943584E1,0E0,0E0,0E0,0E0,0E0,0E0,0E0,0E0,0E0,0E0],"parents":[2147483647,0,0,1,1,2,2,3,3,4,4,5,5,6,6,7,7,8,8,9,9,10,10,11,11,12,12,19,19,20,20,23,23,25,25,26,26],"right_children":[2,4,6,8,10,12,14,16,18,20,22,24,26,-1,-1,-1,-1,-1,-1,28,30,-1,-1,32,-1,34,36,-1,-1,-1,-1,-1,-1,-1,-1,-1,-1],"split_conditions":[1.8371173E0,7.2895E-1,9.260417E0,3E0,1E0,8E-1,8.0804527E-1,4.1706285E-1,4E0,1.4555555E1,1E0,2.89E1,-4E0,3.913921E-2,2.3445847E-2,-1.898786E-2,-6.3172944E-2,-3.0525519E-2,1.1247836E-2,1.6922699E-1,4E0,-1.6655892E-2,-5.785061E-2,-6E0,2.5391662E-3,7E0,2.63E1,-1.7482853E-2,1.18058855E-2,-3.5889912E-2,1.7328436E-2,3.6149975E-2,2.1734202E-2,-3.3474993E-3,-5.1877346E-2,-0E0,3.1978663E-2],"split_indices":[1,25,2,228,151,92,247,247,115,139,240,10,89,0,0,0,0,0,0,247,108,0,0,116,0,207,130,0,0,0,0,0,0,0,0,0,0],"split_type":[0,0,0,0,0,0,0,0,0,0,0,0,0,0,0,0,0,0,0,0,0,0,0,0,0,0,0,0,0,0,0,0,0,0,0,0,0],"sum_hessian":[8.9579767E2,5.982745E2,2.9752316E2,1.190035E2,4.79271E2,1.8268999E2,1.1483318E2,8.471066E1,3.429284E1,4.349928E2,4.4278183E1,1.0907338E2,7.36166E1,8.879182E1,2.604137E1,1.6817575E1,6.789309E1,1.5349825E1,1.8943012E1,3.622337E2,7.2759094E1,1.5744924E1,2.853326E1,8.448421E1,2.4589174E1,3.497028E1,3.8646324E1,5.120043E1,3.1103326E2,5.6248016E1,1.6511076E1,6.0427277E1,2.4056929E1,1.7062452E1,1.7907827E1,1.5383867E1,2.3262455E1],"tree_param":{"num_deleted":"0","num_feature":"249","num_nodes":"37","size_leaf_vector":"1"}},{"base_weights":[3.896944E-2,-3.6042672E-1,5.822012E-1,-1.8518792E-1,-1.167439E0,7.6615405E-1,-1.2003314E0,-4.1516197E-1,5.0431615E-1,-2.5708333E-1,-1.6161904E0,9.134574E-1,-6.196656E-2,-4.9100094E-3,-5.9327934E-2,-5.3856486E-1,2.9743332E-2,7.2805E-1,-1.8147754E-2,1.2913946E-2,-2.8687563E-2,-1.0766201E-2,-6.1596207E-2,-3.0892184E-3,9.7991216E-1,2.6625898E-2,-2.9229838E-2,-1.9163983E-2,1.7537368E-2,-0E0,2.871493E-2,2.0555213E-2,3.5669126E-2],"categories":[],"categories_nodes":[],"categories_segments":[],"categories_sizes":[],"default_left":[0,0,0,0,0,0,0,0,0,0,0,0,0,0,0,0,0,0,0,0,0,0,0,0,0,0,0,0,0,0,0,0,0],"id":8,"left_children":[1,3,5,7,9,11,13,15,17,19,21,23,25,-1,-1,27,-1,29,-1,-1,-1,-1,-1,-1,31,-1,-1,-1,-1,-1,-1,-1,-1],"loss_changes":[1.942774E2,7.208628E1,1.2615869E2,6.799676E1,3.5910896E1,4.2502655E1,2.7822304E1,5.6674236E1,2.7524984E1,1.6723927E1,3.1081055E1,2.0301834E1,4.829781E1,0E0,0E0,3.4167786E1,0E0,1.500938E1,0E0,0E0,0E0,0E0,0E0,0E0,1.4822388E1,0E0,0E0,0E0,0E0,0E0,0E0,0E0,0E0],"parents":[2147483647,0,0,1,1,2,2,3,3,4,4,5,5,6,6,7,7,8,8,9,9,10,10,11,11,12,12,15,15,17,17,24,24],"right_children":[2,4,6,8,10,12,14,16,18,20,22,24,26,-1,-1,28,-1,30,-1,-1,-1,-1,-1,-1,32,-1,-1,-1,-1,-1,-1,-1,-1],"split_conditions":[8E0,8E0,1E1,2.3E-2,1E0,3.28E0,2E1,1.0214286E1,1.4538462E1,-1.4444445E-1,-0E0,6.994E-1,-3.14E-2,-4.9100094E-3,-5.9327934E-2,3.454E-1,2.9743332E-2,4.5555553E0,-1.8147754E-2,1.2913946E-2,-2.8687563E-2,-1.0766201E-2,-6.1596207E-2,-3.0892184E-3,1.2E1,2.6625898E-2,-2.9229838E-2,-1.9163983E-2,1.7537368E-2,-0E0,2.871493E-2,2.0555213E-2,3.5669126E-2],"split_indices":[0,135,135,87,61,104,232,29,139,71,232,145,245,0,0,245,0,120,0,0,0,0,0,0,0,0,0,0,0,0,0,0,0],"split_type":[0,0,0,0,0,0,0,0,0,0,0,0,0,0,0,0,0,0,0,0,0,0,0,0,0,0,0,0,0,0,0,0,0],"sum_hessian":[8.911924E2,5.136593E2,3.7753305E2,4.2434543E2,8.931387E1,3.4340335E2,3.4129684E1,3.1913385E2,1.0521159E2,3.0749159E1,5.856471E1,2.91677E2,5.1726353E1,1.5827354E1,1.8302332E1,2.9472488E2,2.4408974E1,8.8349304E1,1.686229E1,1.5674619E1,1.5074541E1,1.6222027E1,4.2342686E1,1.7555216E1,2.741218E2,2.5212875E1,2.6513477E1,2.7161432E2,2.311054E1,2.1693848E1,6.665546E1,1.178967E2,1.5622508E2],"tree_param":{"num_deleted":"0","num_feature":"249","num_nodes":"33","size_leaf_vector":"1"}},{"base_weights":[3.6590822E-2,-1.7521268E-1,1.1618328E0,-1.3235219E0,4.2061E-2,1.4546392E-2,1.2450051E0,-1.8087686E0,1.0675895E-2,1.7252663E-1,-1.4136289E0,3.936573E-2,1.9536939E-2,-6.5385185E-2,-0E0,8.1986E-1,-1.53156575E-2,-9.343463E-3,-5.52233E-2,-3.220239E-2,3.277229E-2,-1.5731579E-2,1.1088185E-2],"categories":[],"categories_nodes":[],"categories_segments":[],"categories_sizes":[],"default_left":[0,0,0,0,0,0,0,0,0,0,0,0,0,0,0,0,0,0,0,0,0,0,0],"id":9,"left_children":[1,3,5,7,9,-1,11,13,-1,15,17,-1,-1,-1,-1,19,21,-1,-1,-1,-1,-1,-1],"loss_changes":[2.1210774E2,1.8712549E2,6.212616E0,9.8940186E1,1.1990132E2,0E0,2.6447754E0,6.2470886E1,0E0,7.089203E1,2.2645363E1,0E0,0E0,0E0,0E0,6.9963745E1,8.8963104E1,0E0,0E0,0E0,0E0,0E0,0E0],"parents":[2147483647,0,0,1,1,2,2,3,3,4,4,6,6,7,7,9,9,10,10,15,15,16,16],"right_children":[2,4,6,8,10,-1,12,14,-1,16,18,-1,-1,-1,-1,20,22,-1,-1,-1,-1,-1,-1],"split_conditions":[9.328E-1,7.2895E-1,7.282E-1,-3.478925E-2,5E0,1.4546392E-2,8.344E-1,-1.1E-2,1.0675895E-2,1.228708E-1,-7E0,3.936573E-2,1.9536939E-2,-6.5385185E-2,-0E0,8E0,-9E-1,-9.343463E-3,-5.52233E-2,-3.220239E-2,3.277229E-2,-1.5731579E-2,1.1088185E-2],"split_indices":[248,25,145,245,166,0,145,95,0,248,173,0,0,0,0,232,67,0,0,0,0,0,0],"split_type":[0,0,0,0,0,0,0,0,0,0,0,0,0,0,0,0,0,0,0,0,0,0,0],"sum_hessian":[8.850242E2,7.460228E2,1.3900139E2,1.172969E2,6.287259E2,1.709873E1,1.2190265E2,9.102143E1,2.6275469E1,5.788186E2,4.9907333E1,1.0688361E2,1.5019042E1,7.521784E1,1.580359E1,1.2902982E2,4.4978876E2,1.5101405E1,3.4805927E1,1.5359204E1,1.13670616E2,1.9368692E2,2.5610184E2],"tree_param":{"num_deleted":"0","num_feature":"249","num_nodes":"23","size_leaf_vector":"1"}},{"base_weights":[1.5235495E-2,-1.8196651E-1,1.1405171E0,-1.3018773E0,3.7427865E-2,1.5174835E-2,1.2121754E0,-1.7559048E0,1.1266117E-2,1.7163588E-1,-1.4180214E0,3.8519517E-2,2.0904426E-2,-6.495247E-2,1.2586654E-2,-1.434302E-1,6.65209E-1,-5.455131E-2,-1.24991E-2,-1.1012089E-2,1.4453374E-2,3.5924576E-2,1.0945151E-2],"categories":[],"categories_nodes":[],"categories_segments":[],"categories_sizes":[],"default_left":[0,0,0,0,0,0,0,0,0,0,0,0,0,0,0,0,0,0,0,0,0,0,0],"id":10,"left_children":[1,3,5,7,9,-1,11,13,-1,15,17,-1,-1,-1,-1,19,21,-1,-1,-1,-1,-1,-1],"loss_changes":[1.963842E2,1.852008E2,4.2614594E0,9.574176E1,1.23247574E2,0E0,1.9368286E0,8.9251495E1,0E0,9.0407715E1,1.9161873E1,0E0,0E0,0E0,0E0,4.9922947E1,3.484989E1,0E0,0E0,0E0,0E0,0E0,0E0],"parents":[2147483647,0,0,1,1,2,2,3,3,4,4,6,6,7,7,9,9,10,10,15,15,16,16],"right_children":[2,4,6,8,10,-1,12,14,-1,16,18,-1,-1,-1,-1,20,22,-1,-1,-1,-1,-1,-1],"split_conditions":[9.328E-1,7.2895E-1,7.282E-1,3.208697E-2,5E0,1.5174835E-2,8.34E-1,-3.2E0,1.1266117E-2,8E0,8E0,3.8519517E-2,2.0904426E-2,-6.495247E-2,1.2586654E-2,2.3E-2,1.228708E-1,-5.455131E-2,-1.24991E-2,-1.1012089E-2,1.4453374E-2,3.5924576E-2,1.0945151E-2],"split_indices":[248,25,145,245,166,0,145,26,0,0,0,0,0,0,0,87,248,0,0,0,0,0,0],"split_type":[0,0,0,0,0,0,0,0,0,0,0,0,0,0,0,0,0,0,0,0,0,0,0],"sum_hessian":[8.798147E2,7.49821E2,1.2999374E2,1.21437256E2,6.283837E2,1.5247596E1,1.14746155E2,9.563649E1,2.5800764E1,5.7713586E2,5.1247845E1,9.758416E1,1.716199E1,8.062024E1,1.501625E1,3.5276428E2,2.2437158E2,3.523108E1,1.6016764E1,2.6078592E2,9.197838E1,7.8425026E1,1.4594655E2],"tree_param":{"num_deleted":"0","num_feature":"249","num_nodes":"23","size_leaf_vector":"1"}},{"base_weights":[2.4156034E-2,-3.2242087E-1,7.500389E-1,-3.118751E-2,-1.1278279E0,4.2201623E-1,1.1320941E0,-2.7429137E-1,5.2375084E-1,-5.5390745E-1,-1.7145658E0,6.919015E-1,-6.148655E-1,3.6751587E-2,1.4713663E-2,5.182092E-1,-4.8642793E-1,1.0445588E0,-4.434832E-1,1.0599483E-2,-8.0056137E-1,-1.9752512E-2,-5.835536E-2,-5.458741E-3,8.996326E-1,-4.0284768E-2,4.832287E-3,2.6233979E-2,-7.5833863E-3,-3.3244457E-2,-7.9224175E-3,3.713203E-2,9.309503E-3,-3.672152E-2,2.6037553E-2,-9.022289E-3,-3.989075E-2,3.1139813E-2,3.3721172E-3],"categories":[],"categories_nodes":[],"categories_segments":[],"categories_sizes":[],"default_left":[0,0,0,0,0,0,0,0,0,0,0,0,0,0,0,0,0,0,0,0,0,0,0,0,0,0,0,0,0,0,0,0,0,0,0,0,0,0,0],"id":11,"left_children":[1,3,5,7,9,11,13,15,17,19,21,23,25,-1,-1,27,29,31,33,-1,35,-1,-1,-1,37,-1,-1,-1,-1,-1,-1,-1,-1,-1,-1,-1,-1,-1,-1],"loss_changes":[2.2317311E2,1.4029556E2,3.451741E1,5.9965313E1,5.095662E1,4.506291E1,6.089218E0,5.255774E1,6.9230545E1,1.9403269E1,1.5509445E1,2.3499855E1,1.9677013E1,0E0,0E0,1.8773647E1,3.2957077E1,1.1348572E1,5.19128E1,0E0,1.632172E1,0E0,0E0,0E0,1.0617714E1,0E0,0E0,0E0,0E0,0E0,0E0,0E0,0E0,0E0,0E0,0E0,0E0,0E0,0E0],"parents":[2147483647,0,0,1,1,2,2,3,3,4,4,5,5,6,6,7,7,8,8,9,9,10,10,11,11,12,12,15,15,16,16,17,17,18,18,20,20,24,24],"right_children":[2,4,6,8,10,12,14,16,18,20,22,24,26,-1,-1,28,30,32,34,-1,36,-1,-1,-1,38,-1,-1,-1,-1,-1,-1,-1,-1,-1,-1,-1,-1,-1,-1],"split_conditions":[1.8371173E0,2.9E1,2.4E1,4.8815E-1,2.4775504E-1,2.89E1,5.95E0,-1.6E0,7.6E1,2.5E1,6.2E0,7.317E-1,2.97E1,3.6751587E-2,1.4713663E-2,3.711E-1,-2.88E-2,1.1535E2,1.5E1,1.0599483E-2,6E0,-1.9752512E-2,-5.835536E-2,-5.458741E-3,4.916E-1,-4.0284768E-2,4.832287E-3,2.6233979E-2,-7.5833863E-3,-3.3244457E-2,-7.9224175E-3,3.713203E-2,9.309503E-3,-3.672152E-2,2.6037553E-2,-9.022289E-3,-3.989075E-2,3.1139813E-2,3.3721172E-3],"split_indices":[1,141,176,133,246,10,3,92,152,21,124,123,10,0,0,121,87,136,116,0,175,0,0,0,35,0,0,0,0,0,0,0,0,0,0,0,0,0,0],"split_type":[0,0,0,0,0,0,0,0,0,0,0,0,0,0,0,0,0,0,0,0,0,0,0,0,0,0,0,0,0,0,0,0,0,0,0,0,0,0,0],"sum_hessian":[8.826739E2,5.97901E2,2.847729E2,4.4091653E2,1.569845E2,1.559084E2,1.2886449E2,3.0768146E2,1.3323508E2,8.1583046E1,7.540144E1,1.24466354E2,3.144204E1,1.1056071E2,1.830378E1,6.406128E1,2.4362016E2,8.670109E1,4.653399E1,1.6994394E1,6.458865E1,1.5128372E1,6.027307E1,2.3675385E1,1.0079097E2,1.5668191E1,1.5773849E1,4.3897774E1,2.0163506E1,6.1720978E1,1.8189919E2,6.723249E1,1.9468596E1,2.9397879E1,1.7136112E1,3.5118916E1,2.9469734E1,8.485833E1,1.5932639E1],"tree_param":{"num_deleted":"0","num_feature":"249","num_nodes":"39","size_leaf_vector":"1"}},{"base_weights":[1.6495923E-2,-3.1756997E-1,7.178698E-1,-5.142654E-2,-1.048478E0,4.085883E-1,1.1749011E0,-3.8637224E-1,4.2524552E-1,-1.2578077E0,2.0457318E-2,8.775857E-1,-5.5935785E-2,3.7569698E-2,1.8829342E-2,-5.0550535E-2,-1.2591467E0,9.059828E-1,-2.3339541E-1,-2.5942525E-1,-1.6418111E0,1.015328E0,5.4125753E-3,-7.1832645E-1,6.95685E-1,1.2913298E-2,-2.766081E-2,-4.8711605E-2,2.9223275E-3,3.5099547E-2,-0E0,1.390956E-2,-3.750182E-2,1.1555162E-2,-3.4078144E-2,-5.712409E-2,-2.7202584E-2,1.8009009E-2,3.4165077E-2,-5.146814E-2,-4.3330826E-3,3.4123633E-2,5.994508E-4],"categories":[],"categories_nodes":[],"categories_segments":[],"categories_sizes":[],"default_left":[0,0,0,0,0,0,0,0,0,0,0,0,0,0,0,0,0,0,0,0,0,0,0,0,0,0,0,0,0,0,0,0,0,0,0,0,0,0,0,0,0,0,0],"id":12,"left_children":[1,3,5,7,9,11,13,15,17,19,-1,21,23,-1,-1,25,27,29,31,33,35,37,-1,39,41,-1,-1,-1,-1,-1,-1,-1,-1,-1,-1,-1,-1,-1,-1,-1,-1,-1,-1],"loss_changes":[2.0785783E2,1.1634444E2,3.903723E1,7.096555E1,5.978769E1,3.8300945E1,2.6984558E0,7.6066055E1,5.863054E1,5.357512E1,0E0,7.642441E0,4.5359993E1,0E0,0E0,8.1014984E1,3.6518074E1,2.5584496E1,5.7112175E1,2.5079462E1,1.5566772E1,1.800003E0,0E0,2.6733437E1,1.2304749E1,0E0,0E0,0E0,0E0,0E0,0E0,0E0,0E0,0E0,0E0,0E0,0E0,0E0,0E0,0E0,0E0,0E0,0E0],"parents":[2147483647,0,0,1,1,2,2,3,3,4,4,5,5,6,6,7,7,8,8,9,9,11,11,12,12,15,15,16,16,17,17,18,18,19,19,20,20,21,21,23,23,24,24],"right_children":[2,4,6,8,10,12,14,16,18,20,-1,22,24,-1,-1,26,28,30,32,34,36,38,-1,40,42,-1,-1,-1,-1,-1,-1,-1,-1,-1,-1,-1,-1,-1,-1,-1,-1,-1,-1],"split_conditions":[1.8333334E0,2.9E1,2.5E1,6.5182704E-1,8.33959E-1,1E-1,2.94E1,1.55E1,1.165E-2,2.05E0,2.0457318E-2,2.2E1,2.2E0,3.7569698E-2,1.8829342E-2,3.04E-2,-3.8612247E-2,1.154E2,5E0,8.96E-2,4.672E-1,1.7E1,5.4125753E-3,1.1335E2,7.713E-1,1.2913298E-2,-2.766081E-2,-4.8711605E-2,2.9223275E-3,3.5099547E-2,-0E0,1.390956E-2,-3.750182E-2,1.1555162E-2,-3.4078144E-2,-5.712409E-2,-2.7202584E-2,1.8009009E-2,3.4165077E-2,-5.146814E-2,-4.3330826E-3,3.4123633E-2,5.994508E-4],"split_indices":[1,141,176,248,248,70,141,97,77,78,0,175,90,0,0,245,245,136,232,245,13,176,0,27,14,0,0,0,0,0,0,0,0,0,0,0,0,0,0,0,0,0,0],"split_type":[0,0,0,0,0,0,0,0,0,0,0,0,0,0,0,0,0,0,0,0,0,0,0,0,0,0,0,0,0,0,0,0,0,0,0,0,0,0,0,0,0,0,0],"sum_hessian":[8.826662E2,5.9834155E2,2.8432465E2,4.4049615E2,1.5784541E2,1.7222275E2,1.1210191E2,2.593004E2,1.8119576E2,1.4145305E2,1.6392366E1,8.513514E1,8.70876E1,9.5470474E1,1.6631437E1,1.890271E2,7.027331E1,1.0457306E2,7.66227E1,4.044117E1,1.0101187E2,6.996817E1,1.516697E1,4.6550858E1,4.0536747E1,1.2223169E2,6.67954E1,5.5251728E1,1.5021582E1,8.059411E1,2.3978949E1,4.592699E1,3.0695713E1,2.3752316E1,1.6688856E1,7.179932E1,2.9212559E1,1.9291643E1,5.067653E1,1.535905E1,3.1191807E1,2.341651E1,1.7120237E1],"tree_param":{"num_deleted":"0","num_feature":"249","num_nodes":"43","size_leaf_vector":"1"}},{"base_weights":[6.9881063E-3,-3.1120935E-1,6.936404E-1,-4.7723338E-2,-1.0430393E0,4.1225344E-1,1.1331168E0,-4.4606665E-1,3.4478226E-1,-1.2548414E0,1.9543072E-2,7.662331E-1,-1.052784E-1,3.6529154E-2,1.777193E-2,5.3656316E-1,-6.554744E-1,5.5793035E-1,-5.131659E-1,6.0587507E-3,-1.5642246E0,-6.9839247E-3,9.444598E-1,-5.934199E-1,2.5687693E-2,-3.7239864E-3,2.8777579E-2,-8.291093E-3,-3.425252E-2,-8.158817E-3,2.3808226E-2,-4.1646775E-2,2.8412804E-2,-3.277591E-2,-5.6052316E-2,1.3087182E-2,3.1437386E-2,-3.4117583E-2,1.38063105E-2],"categories":[],"categories_nodes":[],"categories_segments":[],"categories_sizes":[],"default_left":[0,0,0,0,0,0,0,0,0,0,0,0,0,0,0,0,0,0,0,0,0,0,0,0,0,0,0,0,0,0,0,0,0,0,0,0,0,0,0],"id":13,"left_children":[1,3,5,7,9,11,13,15,17,19,-1,21,23,-1,-1,25,27,29,31,-1,33,-1,35,37,-1,-1,-1,-1,-1,-1,-1,-1,-1,-1,-1,-1,-1,-1,-1],"loss_changes":[1.9297618E2,1.15831024E2,3.32041E1,7.002456E1,5.895511E1,3.2262455E1,2.934784E0,4.651433E1,4.1776672E1,6.520386E1,0E0,1.9170753E1,3.4800518E1,0E0,0E0,1.1639276E1,3.296154E1,3.611834E1,6.101175E1,0E0,1.193454E1,0E0,3.3148346E0,2.9465113E1,0E0,0E0,0E0,0E0,0E0,0E0,0E0,0E0,0E0,0E0,0E0,0E0,0E0,0E0,0E0],"parents":[2147483647,0,0,1,1,2,2,3,3,4,4,5,5,6,6,7,7,8,8,9,9,11,11,12,12,15,15,16,16,17,17,18,18,20,20,22,22,23,23],"right_children":[2,4,6,8,10,12,14,16,18,20,-1,22,24,-1,-1,26,28,30,32,-1,34,-1,36,38,-1,-1,-1,-1,-1,-1,-1,-1,-1,-1,-1,-1,-1,-1,-1],"split_conditions":[1.8371173E0,2.9E1,9.260417E0,4.664E-1,8.33959E-1,8E-1,8.586691E-1,-1.6E0,8.3E1,-7E-3,1.9543072E-2,-1.1E1,9.7E-3,3.6529154E-2,1.777193E-2,4.6666665E0,3.547E-1,-1E0,1.2735766E-1,6.0587507E-3,1.176E2,-6.9839247E-3,3.181818E-1,3.776E-1,2.5687693E-2,-3.7239864E-3,2.8777579E-2,-8.291093E-3,-3.425252E-2,-8.158817E-3,2.3808226E-2,-4.1646775E-2,2.8412804E-2,-3.277591E-2,-5.6052316E-2,1.3087182E-2,3.1437386E-2,-3.4117583E-2,1.38063105E-2],"split_indices":[1,141,2,144,248,92,247,92,152,105,0,46,65,0,0,33,12,108,245,0,161,0,215,34,0,0,0,0,0,0,0,0,0,0,0,0,0,0,0],"split_type":[0,0,0,0,0,0,0,0,0,0,0,0,0,0,0,0,0,0,0,0,0,0,0,0,0,0,0,0,0,0,0,0,0,0,0,0,0,0,0],"sum_hessian":[8.787214E2,6.0091266E2,2.7780872E2,4.437033E2,1.5720937E2,1.7214615E2,1.0566258E2,2.2045793E2,2.2324538E2,1.4036081E2,1.6848555E1,1.01999466E2,7.0146675E1,8.873373E1,1.692886E1,3.7927742E1,1.8253018E2,1.7965985E2,4.358552E1,2.453886E1,1.15821945E2,1.5094313E1,8.690516E1,4.7241375E1,2.2905302E1,1.5071985E1,2.2855757E1,1.04676895E2,7.785329E1,3.938665E1,1.402732E2,2.7443882E1,1.6141638E1,4.939533E1,6.642662E1,1.6953474E1,6.995168E1,3.1241844E1,1.5999529E1],"tree_param":{"num_deleted":"0","num_feature":"249","num_nodes":"39","size_leaf_vector":"1"}},{"base_weights":[2.1703867E-2,-2.884028E-1,6.8802375E-1,-1.1023632E0,-7.526399E-2,3.634578E-1,1.0679994E0,-1.7560883E0,5.283321E-1,8.459865E-2,-1.0869294E0,6.311162E-1,-5.84422E-1,1.173165E0,1.0362365E-2,-5.7885E-2,-2.3940552E-2,3.724884E-2,-1.2902776E-2,2.2364129E-1,-6.425739E-1,-7.2492003E-3,-1.6503162E0,9.9613523E-1,7.689659E-2,-3.7468266E-2,3.3006296E-3,3.7116922E-2,1.9996952E-2,-2.8776577E-2,9.280148E-3,-3.3873737E-2,9.69606E-3,-2.989859E-2,-5.9096623E-2,3.2844655E-2,1.6196907E-2,-2.1613438E-2,2.0036696E-2],"categories":[],"categories_nodes":[],"categories_segments":[],"categories_sizes":[],"default_left":[0,0,0,0,0,0,0,0,0,0,0,0,0,0,0,0,0,0,0,0,0,0,0,0,0,0,0,0,0,0,0,0,0,0,0,0,0,0,0],"id":14,"left_children":[1,3,5,7,9,11,13,15,17,19,21,23,25,27,-1,-1,-1,-1,-1,29,31,-1,33,35,37,-1,-1,-1,-1,-1,-1,-1,-1,-1,-1,-1,-1,-1,-1],"loss_changes":[1.8216022E2,1.037442E2,3.333647E1,1.3470505E2,7.7905655E1,3.9953285E1,8.428329E0,1.0939545E1,2.6585457E1,4.2120426E1,2.9934258E1,2.4144749E1,1.6682781E1,1.3550262E0,0E0,0E0,0E0,0E0,0E0,3.5898003E1,3.2352898E1,0E0,3.3061981E0,1.6088028E0,2.4893812E1,0E0,0E0,0E0,0E0,0E0,0E0,0E0,0E0,0E0,0E0,0E0,0E0,0E0,0E0],"parents":[2147483647,0,0,1,1,2,2,3,3,4,4,5,5,6,6,7,7,8,8,9,9,10,10,11,11,12,12,13,13,19,19,20,20,22,22,23,23,24,24],"right_children":[2,4,6,8,10,12,14,16,18,20,22,24,26,28,-1,-1,-1,-1,-1,30,32,-1,34,36,38,-1,-1,-1,-1,-1,-1,-1,-1,-1,-1,-1,-1,-1,-1],"split_conditions":[1.8333334E0,7.2895E-1,2.4E1,3.208697E-2,1.06E1,2.89E1,5.95E0,-6.666667E-1,8.75E-1,1.4555555E1,-3.478925E-2,8E-1,2.97E1,1.8E1,1.0362365E-2,-5.7885E-2,-2.3940552E-2,3.724884E-2,-1.2902776E-2,1.17E1,2E-1,-7.2492003E-3,4.922E-1,1.179E2,-2E0,-3.7468266E-2,3.3006296E-3,3.7116922E-2,1.9996952E-2,-2.8776577E-2,9.280148E-3,-3.3873737E-2,9.69606E-3,-2.989859E-2,-5.9096623E-2,3.2844655E-2,1.6196907E-2,-2.1613438E-2,2.0036696E-2],"split_indices":[1,25,176,245,149,10,3,62,237,139,245,92,10,175,0,0,0,0,0,30,94,0,35,136,89,0,0,0,0,0,0,0,0,0,0,0,0,0,0],"split_type":[0,0,0,0,0,0,0,0,0,0,0,0,0,0,0,0,0,0,0,0,0,0,0,0,0,0,0,0,0,0,0,0,0,0,0,0,0,0,0],"sum_hessian":[8.77075E2,5.989886E2,2.7808643E2,1.2227568E2,4.767129E2,1.5251465E2,1.2557176E2,8.7306E1,3.4969685E1,4.129889E2,6.3724E1,1.1969931E2,3.2815342E1,1.08166824E2,1.740494E1,7.194318E1,1.536282E1,1.988933E1,1.5080354E1,3.4820593E2,6.478298E1,2.6841736E1,3.6882263E1,7.0880264E1,4.8819046E1,1.6173643E1,1.66417E1,9.293714E1,1.5229682E1,2.1909254E1,3.2629666E2,4.306135E1,2.1721634E1,1.5123168E1,2.1759094E1,5.5432945E1,1.5447318E1,2.0378916E1,2.844013E1],"tree_param":{"num_deleted":"0","num_feature":"249","num_nodes":"39","size_leaf_vector":"1"}},{"base_weights":[1.5694534E-2,-1.732204E-1,1.10423E0,-1.2940067E-2,-1.4751067E0,1.6668834E-2,1.167576E0,-3.0479026E-1,5.13928E-1,-5.253184E-2,-1.0084351E-2,3.7332896E-2,1.8757155E-2,-5.2760166E-1,4.4623095E-1,3.462057E-2,1.9974467E-1,-1.892692E-2,2.4141818E-2,2.8111426E-2,-4.0639327E-3,-2.8657457E-2,1.381793E-2],"categories":[],"categories_nodes":[],"categories_segments":[],"categories_sizes":[],"default_left":[0,0,0,0,0,0,0,0,0,0,0,0,0,0,0,0,0,0,0,0,0,0,0],"id":15,"left_children":[1,3,5,7,9,-1,11,13,15,-1,-1,-1,-1,17,19,-1,21,-1,-1,-1,-1,-1,-1],"loss_changes":[1.8024881E2,1.5510794E2,2.6912537E0,1.0268006E2,2.381665E1,0E0,2.6315308E0,7.2499886E1,4.696331E1,0E0,0E0,0E0,0E0,4.680191E1,2.8824326E1,0E0,4.9619392E1,0E0,0E0,0E0,0E0,0E0,0E0],"parents":[2147483647,0,0,1,1,2,2,3,3,4,4,6,6,7,7,8,8,13,13,14,14,16,16],"right_children":[2,4,6,8,10,-1,12,14,16,-1,-1,-1,-1,18,20,-1,22,-1,-1,-1,-1,-1,-1],"split_conditions":[9.328E-1,1E1,7.286E-1,8E0,4.645E-1,1.6668834E-2,8.34E-1,2.3E-2,1.228708E-1,-5.253184E-2,-1.0084351E-2,3.7332896E-2,1.8757155E-2,1.0214286E1,4.72E-1,3.462057E-2,2.5513005E-1,-1.892692E-2,2.4141818E-2,2.8111426E-2,-4.0639327E-3,-2.8657457E-2,1.381793E-2],"split_indices":[248,135,145,0,24,0,145,87,248,0,0,0,0,29,156,0,247,0,0,0,0,0,0],"split_type":[0,0,0,0,0,0,0,0,0,0,0,0,0,0,0,0,0,0,0,0,0,0,0],"sum_hessian":[8.7130493E2,7.4365076E2,1.2765416E2,6.641366E2,7.9514145E1,1.5727336E1,1.1192683E2,4.2829938E2,2.3583722E2,6.2929066E1,1.6585075E1,9.528221E1,1.6644617E1,3.3107205E2,9.722733E1,7.557204E1,1.6026518E2,3.0843698E2,2.2635057E1,5.2349983E1,4.4877346E1,2.8334194E1,1.31931E2],"tree_param":{"num_deleted":"0","num_feature":"249","num_nodes":"23","size_leaf_vector":"1"}},{"base_weights":[4.0157396E-2,-1.3735957E-1,1.0895499E0,8.48879E-3,-1.3945647E0,3.549049E-2,1.7654499E-2,-2.8107008E-1,5.2099174E-1,-5.087645E-2,-6.498197E-3,-1.7760937E-1,-4.843848E-2,3.4603115E-2,2.0032726E-1,-8.807976E-3,2.4176912E-2,-4.094283E-2,1.2944553E-2],"categories":[],"categories_nodes":[],"categories_segments":[],"categories_sizes":[],"default_left":[0,0,0,0,0,0,0,0,0,0,0,0,0,0,0,0,0,0,0],"id":16,"left_children":[1,3,5,7,9,-1,-1,11,13,-1,-1,15,-1,-1,17,-1,-1,-1,-1],"loss_changes":[1.6228915E2,1.3685747E2,3.9800873E0,9.955834E1,2.6221909E1,0E0,0E0,5.7944454E1,4.8288475E1,0E0,0E0,4.5912865E1,0E0,0E0,6.0075726E1,0E0,0E0,0E0,0E0],"parents":[2147483647,0,0,1,1,2,2,3,3,4,4,7,7,8,8,11,11,14,14],"right_children":[2,4,6,8,10,-1,-1,12,14,-1,-1,16,-1,-1,18,-1,-1,-1,-1],"split_conditions":[9.328E-1,1E1,1.05E0,8E0,8E0,3.549049E-2,1.7654499E-2,5E0,1.228708E-1,-5.087645E-2,-6.498197E-3,4.195E-2,-4.843848E-2,3.4603115E-2,2.0934466E-1,-8.807976E-3,2.4176912E-2,-4.094283E-2,1.2944553E-2],"split_indices":[248,135,104,0,50,0,0,166,248,0,0,75,0,0,247,0,0,0,0],"split_type":[0,0,0,0,0,0,0,0,0,0,0,0,0,0,0,0,0,0,0],"sum_hessian":[8.660473E2,7.419844E2,1.24062965E2,6.664208E2,7.556359E1,1.0176036E2,2.23026E1,4.2603384E2,2.4038692E2,5.926883E1,1.6294764E1,3.976725E2,2.8361351E1,7.8813576E1,1.6157335E2,3.5724838E2,4.0424095E1,1.9363573E1,1.4220978E2],"tree_param":{"num_deleted":"0","num_feature":"249","num_nodes":"19","size_leaf_vector":"1"}},{"base_weights":[2.2885123E-2,-1.46706E-1,1.0611272E0,-1.1468562E0,4.264387E-2,1.4227351E-2,1.137277E0,-1.529504E0,1.1176278E-2,1.56265E-1,-1.1761998E0,3.6512226E-2,1.7439261E-2,-5.4660507E-2,-9.494704E-3,3.2608225E-3,9.316478E-1,-4.652013E-2,-7.390026E-3,4.555375E-3,-1.7384712E-2,3.174732E-2,7.153777E-3],"categories":[],"categories_nodes":[],"categories_segments":[],"categories_sizes":[],"default_left":[0,0,0,0,0,0,0,0,0,0,0,0,0,0,0,0,0,0,0,0,0,0,0],"id":17,"left_children":[1,3,5,7,9,-1,11,13,-1,15,17,-1,-1,-1,-1,19,21,-1,-1,-1,-1,-1,-1],"loss_changes":[1.5168196E2,1.4040758E2,3.8445892E0,7.008234E1,8.636119E1,0E0,2.7127838E0,3.1841705E1,0E0,6.757555E1,1.720327E1,0E0,0E0,0E0,0E0,4.1616367E1,7.350136E0,0E0,0E0,0E0,0E0,0E0,0E0],"parents":[2147483647,0,0,1,1,2,2,3,3,4,4,6,6,7,7,9,9,10,10,15,15,16,16],"right_children":[2,4,6,8,10,-1,12,14,-1,16,18,-1,-1,-1,-1,20,22,-1,-1,-1,-1,-1,-1],"split_conditions":[9.328E-1,7.2895E-1,7.286E-1,3.208697E-2,1E0,1.4227351E-2,8.34E-1,-2.857143E-1,1.1176278E-2,1.3E1,5.329167E0,3.6512226E-2,1.7439261E-2,-5.4660507E-2,-9.494704E-3,1.4555555E1,3.04E0,-4.652013E-2,-7.390026E-3,4.555375E-3,-1.7384712E-2,3.174732E-2,7.153777E-3],"split_indices":[248,25,145,245,151,0,145,62,0,0,2,0,0,0,0,139,104,0,0,0,0,0,0],"split_type":[0,0,0,0,0,0,0,0,0,0,0,0,0,0,0,0,0,0,0,0,0,0,0],"sum_hessian":[8.5612805E2,7.371475E2,1.1898053E2,1.15984665E2,6.2116284E2,1.5777723E1,1.03202805E2,9.279833E1,2.3186333E1,5.7001544E2,5.1147373E1,8.769785E1,1.5504952E1,7.376E1,1.9038332E1,4.7807376E2,9.194169E1,3.52812E1,1.5866173E1,3.825325E2,9.554126E1,7.648693E1,1.5454763E1],"tree_param":{"num_deleted":"0","num_feature":"249","num_nodes":"23","size_leaf_vector":"1"}},{"base_weights":[3.6083702E-2,-1.3153303E-1,1.0405927E0,6.885678E-3,-1.3503118E0,1.2214155E-2,1.1191561E0,-2.6555765E-1,5.013364E-1,-8.738107E-3,-4.8598785E-2,3.631167E-2,1.9633792E-2,-4.6288353E-1,4.018611E-1,3.405897E-2,1.9446567E-1,-1.7011786E-2,2.5243852E-2,2.7221924E-2,-6.997763E-3,-3.9720286E-2,1.2466179E-2],"categories":[],"categories_nodes":[],"categories_segments":[],"categories_sizes":[],"default_left":[0,0,0,0,0,0,0,0,0,0,0,0,0,0,0,0,0,0,0,0,0,0,0],"id":18,"left_children":[1,3,5,7,9,-1,11,13,15,-1,-1,-1,-1,17,19,-1,21,-1,-1,-1,-1,-1,-1],"loss_changes":[1.4651369E2,1.26016174E2,4.8243866E0,9.063532E1,2.0231628E1,0E0,2.4839783E0,5.742913E1,4.5698025E1,0E0,0E0,0E0,0E0,4.6466614E1,3.2589523E1,0E0,5.5856438E1,0E0,0E0,0E0,0E0,0E0,0E0],"parents":[2147483647,0,0,1,1,2,2,3,3,4,4,6,6,7,7,8,8,13,13,14,14,16,16],"right_children":[2,4,6,8,10,-1,12,14,16,-1,-1,-1,-1,18,20,-1,22,-1,-1,-1,-1,-1,-1],"split_conditions":[9.328E-1,1E1,7.452E-1,8E0,1E0,1.2214155E-2,8.102E-1,2.3E-2,1.228708E-1,-8.738107E-3,-4.8598785E-2,3.631167E-2,1.9633792E-2,1.0214286E1,4.72E-1,3.405897E-2,2.0934466E-1,-1.7011786E-2,2.5243852E-2,2.7221924E-2,-6.997763E-3,-3.9720286E-2,1.2466179E-2],"split_indices":[248,135,123,0,61,0,123,87,248,0,0,0,0,29,156,0,247,0,0,0,0,0,0],"split_type":[0,0,0,0,0,0,0,0,0,0,0,0,0,0,0,0,0,0,0,0,0,0,0],"sum_hessian":[8.649302E2,7.4247675E2,1.2245342E2,6.683174E2,7.4159355E1,1.5297033E1,1.0715639E2,4.310997E2,2.3721768E2,1.6120205E1,5.8039146E1,8.6348755E1,2.080764E1,3.3354715E2,9.7552574E1,7.529315E1,1.6192453E2,3.1013748E2,2.340967E1,5.410309E1,4.3449486E1,1.9137938E1,1.4278659E2],"tree_param":{"num_deleted":"0","num_feature":"249","num_nodes":"23","size_leaf_vector":"1"}},{"base_weights":[3.5806805E-2,-1.2564394E-1,1.0308864E0,1.7087547E-2,-1.3413008E0,9.835132E-3,1.1221852E0,-2.5343978E-1,5.1297385E-1,-4.823359E-2,-8.6045815E-3,3.5933435E-2,1.7353887E-2,-4.3556178E-1,3.624656E-1,3.342148E-2,2.2398509E-1,-1.5749639E-2,2.2299109E-2,-2.2265466E-2,1.7740948E-2,1.6121807E-2,-1.6263194E-2],"categories":[],"categories_nodes":[],"categories_segments":[],"categories_sizes":[],"default_left":[0,0,0,0,0,0,0,0,0,0,0,0,0,0,0,0,0,0,0,0,0,0,0],"id":19,"left_children":[1,3,5,7,9,-1,11,13,15,-1,-1,-1,-1,17,19,-1,21,-1,-1,-1,-1,-1,-1],"loss_changes":[1.3833125E2,1.28759E2,6.545555E0,8.935621E1,2.0413712E1,0E0,2.405243E0,4.8603367E1,3.996832E1,0E0,0E0,0E0,0E0,3.585999E1,2.584343E1,0E0,3.9412006E1,0E0,0E0,0E0,0E0,0E0,0E0],"parents":[2147483647,0,0,1,1,2,2,3,3,4,4,6,6,7,7,8,8,13,13,14,14,16,16],"right_children":[2,4,6,8,10,-1,12,14,16,-1,-1,-1,-1,18,20,-1,22,-1,-1,-1,-1,-1,-1],"split_conditions":[9.328E-1,1E1,7.282E-1,8E0,4.645E-1,9.835132E-3,8.34E-1,2.3E-2,1.228708E-1,-4.823359E-2,-8.6045815E-3,3.5933435E-2,1.7353887E-2,1.0214286E1,6.699556E-2,3.342148E-2,1.43E1,-1.5749639E-2,2.2299109E-2,-2.2265466E-2,1.7740948E-2,1.6121807E-2,-1.6263194E-2],"split_indices":[248,135,145,0,24,0,145,87,248,0,0,0,0,29,246,0,139,0,0,0,0,0,0],"split_type":[0,0,0,0,0,0,0,0,0,0,0,0,0,0,0,0,0,0,0,0,0,0,0],"sum_hessian":[8.557354E2,7.3751953E2,1.1821587E2,6.6156915E2,7.5950386E1,1.5020185E1,1.03195694E2,4.2829086E2,2.3327826E2,5.9563683E1,1.6386703E1,8.800271E1,1.51929865E1,3.3137628E2,9.69146E1,7.355051E1,1.5972775E2,3.0927884E2,2.2097424E1,1.5640336E1,8.127426E1,1.14056015E2,4.567173E1],"tree_param":{"num_deleted":"0","num_feature":"249","num_nodes":"23","size_leaf_vector":"1"}},{"base_weights":[2.7333606E-2,-1.4741725E-1,8.072999E-1,3.0351486E-2,-7.7840596E-1,-9.782668E-3,9.802736E-1,-1.7838673E-1,4.9749166E-1,-1.1975472E0,1.617814E-1,4.018079E-1,3.5085104E-2,-3.6809927E-1,4.56956E-1,6.87495E-1,-2.0768624E-2,-1.5085195E-2,-1.3922315E0,-2.2613076E-2,6.2747806E-1,3.1057706E-2,-7.0701363E-3,-1.44043295E-2,2.411871E-2,2.697822E-2,-0E0,-1.9811878E-3,2.5898656E-2,-1.6511317E-2,-4.701531E-2,3.3458527E-2,1.7444361E-3],"categories":[],"categories_nodes":[],"categories_segments":[],"categories_sizes":[],"default_left":[0,0,0,0,0,0,0,0,0,0,0,0,0,0,0,0,0,0,0,0,0,0,0,0,0,0,0,0,0,0,0,0,0],"id":20,"left_children":[1,3,5,7,9,-1,11,13,15,17,19,21,-1,23,25,27,-1,-1,29,-1,31,-1,-1,-1,-1,-1,-1,-1,-1,-1,-1,-1,-1],"loss_changes":[1.1644909E2,7.842528E1,3.1500984E1,5.3430702E1,6.1224915E1,0E0,1.3523544E1,4.584855E1,3.9230766E1,1.2461334E1,2.1757872E1,1.5696268E1,0E0,3.9075165E1,1.788307E1,1.9857307E1,0E0,0E0,9.697327E0,0E0,8.883705E0,0E0,0E0,0E0,0E0,0E0,0E0,0E0,0E0,0E0,0E0,0E0,0E0],"parents":[2147483647,0,0,1,1,2,2,3,3,4,4,6,6,7,7,8,8,9,9,10,10,11,11,13,13,14,14,15,15,18,18,20,20],"right_children":[2,4,6,8,10,-1,12,14,16,18,20,22,-1,24,26,28,-1,-1,30,-1,32,-1,-1,-1,-1,-1,-1,-1,-1,-1,-1,-1,-1],"split_conditions":[2.4E1,2.96E1,2.3714285E1,8E0,1.3E-1,-9.782668E-3,7E0,2.3E-2,3.2E0,7E0,4.22E1,2E0,3.5085104E-2,1.0214286E1,4.72E-1,-3.35E0,-2.0768624E-2,-1.5085195E-2,4.55E1,-2.2613076E-2,3.4365E-1,3.1057706E-2,-7.0701363E-3,-1.44043295E-2,2.411871E-2,2.697822E-2,-0E0,-1.9811878E-3,2.5898656E-2,-1.6511317E-2,-4.701531E-2,3.3458527E-2,1.7444361E-3],"split_indices":[176,141,10,0,96,0,0,87,93,176,28,2,0,29,156,135,0,0,137,0,23,0,0,0,0,0,0,0,0,0,0,0,0],"split_type":[0,0,0,0,0,0,0,0,0,0,0,0,0,0,0,0,0,0,0,0,0,0,0,0,0,0,0,0,0,0,0,0,0],"sum_hessian":[8.491613E2,6.9474225E2,1.544191E2,5.43149E2,1.5159325E2,1.9982363E1,1.3443674E2,3.7581348E2,1.673355E2,1.0469237E2,4.690088E1,3.5067955E1,9.9368774E1,2.9041068E2,8.540281E1,1.4523799E2,2.209749E1,2.4822594E1,7.9869774E1,1.5178628E1,3.172225E1,1.7199661E1,1.7868294E1,2.66382E2,2.4028675E1,4.2681366E1,4.2721447E1,2.7386894E1,1.17851105E2,1.5463719E1,6.440606E1,1.5767622E1,1.5954629E1],"tree_param":{"num_deleted":"0","num_feature":"249","num_nodes":"33","size_leaf_vector":"1"}},{"base_weights":[1.6421283E-2,-2.4398594E-1,6.1523616E-1,-1.7805625E-2,-8.7896323E-1,3.339635E-1,1.0556448E0,-3.0813417E-1,4.1645533E-1,-1.0478328E0,1.5469724E-2,-5.8434576E-2,8.03034E-1,3.483444E-2,1.3593446E-2,-7.39472E-1,1.09499075E-1,6.6971743E-1,-4.7301242E-1,5.682076E-3,-1.3178816E0,2.9792598E-1,-4.0767133E-2,1.0087395E0,3.8009748E-4,-3.9163414E-2,-6.1515137E-3,-1.7689273E-2,1.6776469E-2,-1.3297457E-2,2.5563478E-2,-3.854479E-2,1.7238034E-2,-1.5078728E-2,-4.376487E-2,1.8414726E-2,-2.2300966E-2,3.460099E-2,1.7145542E-2],"categories":[],"categories_nodes":[],"categories_segments":[],"categories_sizes":[],"default_left":[0,0,0,0,0,0,0,0,0,0,0,0,0,0,0,0,0,0,0,0,0,0,0,0,0,0,0,0,0,0,0,0,0,0,0,0,0,0,0],"id":21,"left_children":[1,3,5,7,9,11,13,15,17,19,-1,21,23,-1,-1,25,27,29,31,-1,33,35,-1,37,-1,-1,-1,-1,-1,-1,-1,-1,-1,-1,-1,-1,-1,-1,-1],"loss_changes":[1.3296423E2,8.493822E1,3.0905067E1,5.570004E1,3.786007E1,2.9973047E1,4.783806E0,4.813712E1,4.050657E1,4.7463074E1,0E0,4.2487442E1,1.1678474E1,0E0,0E0,3.866696E1,4.3462807E1,2.902647E1,3.5776623E1,0E0,1.1159256E1,2.4396088E1,0E0,1.850132E0,0E0,0E0,0E0,0E0,0E0,0E0,0E0,0E0,0E0,0E0,0E0,0E0,0E0,0E0,0E0],"parents":[2147483647,0,0,1,1,2,2,3,3,4,4,5,5,6,6,7,7,8,8,9,9,11,11,12,12,15,15,16,16,17,17,18,18,20,20,21,21,23,23],"right_children":[2,4,6,8,10,12,14,16,18,20,-1,22,24,-1,-1,26,28,30,32,-1,34,36,-1,38,-1,-1,-1,-1,-1,-1,-1,-1,-1,-1,-1,-1,-1,-1,-1],"split_conditions":[1.8333334E0,2.9E1,2.5E1,6.5182704E-1,8.33959E-1,1.4E0,4.2E0,-1.4E-2,1.52E1,-7E-3,1.5469724E-2,9.8E0,2.91E1,3.483444E-2,1.3593446E-2,7E0,1.3041256E-1,1.285E1,7.721E-1,5.682076E-3,-1.6666667E-1,3.2E0,-4.0767133E-2,7.815E-1,3.8009748E-4,-3.9163414E-2,-6.1515137E-3,-1.7689273E-2,1.6776469E-2,-1.3297457E-2,2.5563478E-2,-3.854479E-2,1.7238034E-2,-1.5078728E-2,-4.376487E-2,1.8414726E-2,-2.2300966E-2,3.460099E-2,1.7145542E-2],"split_indices":[1,141,176,248,248,67,84,86,41,105,0,127,119,0,0,232,246,30,25,0,230,93,0,14,0,0,0,0,0,0,0,0,0,0,0,0,0,0,0],"split_type":[0,0,0,0,0,0,0,0,0,0,0,0,0,0,0,0,0,0,0,0,0,0,0,0,0,0,0,0,0,0,0,0,0,0,0,0,0,0,0],"sum_hessian":[8.4804663E2,5.915032E2,2.565435E2,4.3801117E2,1.5349202E2,1.591183E2,9.742517E1,2.63271E2,1.7474016E2,1.3754912E2,1.5942894E1,8.724517E1,7.187313E1,8.090628E1,1.651889E1,1.2910574E2,1.3416525E2,1.366598E2,3.8080357E1,2.4551615E1,1.12997505E2,6.950911E1,1.7736063E1,5.629044E1,1.5582694E1,6.102784E1,6.807791E1,5.2013805E1,8.215145E1,1.8608543E1,1.1805126E2,2.1360916E1,1.671944E1,1.831601E1,9.4681496E1,5.4181206E1,1.5327901E1,3.9321404E1,1.6969036E1],"tree_param":{"num_deleted":"0","num_feature":"249","num_nodes":"39","size_leaf_vector":"1"}},{"base_weights":[1.0990253E-2,-1.4654796E-1,1.0345036E0,-1.0010118E0,2.3827791E-2,3.3891663E-2,1.6154356E-2,1.2034764E-2,-1.258297E0,1.3458522E-1,-1.1048827E0,-4.4493604E-2,-1.1609544E-3,-0E0,8.905833E-1,-1.1806855E-2,-4.33472E-2,4.1600713E-3,-1.5638355E-2,3.1961028E-2,1.31214615E-2],"categories":[],"categories_nodes":[],"categories_segments":[],"categories_sizes":[],"default_left":[0,0,0,0,0,0,0,0,0,0,0,0,0,0,0,0,0,0,0,0,0],"id":22,"left_children":[1,3,5,7,9,-1,-1,-1,11,13,15,-1,-1,17,19,-1,-1,-1,-1,-1,-1],"loss_changes":[1.3685034E2,1.07189354E2,3.6313171E0,4.540747E1,7.671371E1,0E0,0E0,0E0,2.7958496E1,5.718618E1,1.1566673E1,0E0,0E0,3.4743317E1,5.3430023E0,0E0,0E0,0E0,0E0,0E0,0E0],"parents":[2147483647,0,0,1,1,2,2,3,3,4,4,8,8,9,9,10,10,13,13,14,14],"right_children":[2,4,6,8,10,-1,-1,-1,12,14,16,-1,-1,18,20,-1,-1,-1,-1,-1,-1],"split_conditions":[9.328E-1,7.2895E-1,1.05E0,-7E-1,1E0,3.3891663E-2,1.6154356E-2,1.2034764E-2,8.0133426E-1,1.3E1,2.7170056E-1,-4.4493604E-2,-1.1609544E-3,1.4555555E1,3.528E-1,-1.1806855E-2,-4.33472E-2,4.1600713E-3,-1.5638355E-2,3.1961028E-2,1.31214615E-2],"split_indices":[248,25,104,102,151,0,0,0,248,0,248,0,0,139,248,0,0,0,0,0,0],"split_type":[0,0,0,0,0,0,0,0,0,0,0,0,0,0,0,0,0,0,0,0,0],"sum_hessian":[8.431914E2,7.3195074E2,1.1124064E2,1.2035579E2,6.11595E2,9.067456E1,2.056608E1,1.8306002E1,1.0204979E2,5.5878973E2,5.2805267E1,8.559323E1,1.6456556E1,4.7588165E2,8.2908066E1,1.8759048E1,3.404622E1,3.7683054E2,9.90511E1,5.7405304E1,2.5502762E1],"tree_param":{"num_deleted":"0","num_feature":"249","num_nodes":"21","size_leaf_vector":"1"}},{"base_weights":[2.6662067E-2,-2.240037E-1,6.111934E-1,1.6500964E-4,-8.6190283E-1,9.008798E-1,1.9045119E-1,-7.3210317E-1,1.15714334E-1,1.45770535E-2,-1.0265872E0,-5.029377E-4,1.0131736E0,-4.6703902E-1,6.748733E-1,-1.5456158E0,1.5367682E-2,2.928429E-1,-4.9258554E-1,-5.93936E-1,-1.3395884E0,3.3239417E-2,1.7094431E-2,-4.1194208E-2,1.0937863E-2,3.0384604E-2,4.7453953E-4,-5.476095E-2,-3.0678831E-2,1.2780234E-2,-2.047125E-2,-2.9552015E-2,1.8396845E-2,-2.87844E-2,2.3206376E-4,-4.6128284E-2,-1.4446805E-2],"categories":[],"categories_nodes":[],"categories_segments":[],"categories_sizes":[],"default_left":[0,0,0,0,0,0,0,0,0,0,0,0,0,0,0,0,0,0,0,0,0,0,0,0,0,0,0,0,0,0,0,0,0,0,0,0,0],"id":23,"left_children":[1,3,5,7,9,11,13,15,17,-1,19,-1,21,23,25,27,-1,29,31,33,35,-1,-1,-1,-1,-1,-1,-1,-1,-1,-1,-1,-1,-1,-1,-1,-1],"loss_changes":[1.24493004E2,8.518346E1,3.0422066E1,3.7308155E1,3.551551E1,1.5802338E1,3.4765953E1,6.2670193E1,4.1503483E1,0E0,1.6620865E1,0E0,3.8697662E0,3.6194542E1,1.3619207E1,8.17894E-1,0E0,3.924552E1,4.8564983E1,1.3990652E1,1.125499E1,0E0,0E0,0E0,0E0,0E0,0E0,0E0,0E0,0E0,0E0,0E0,0E0,0E0,0E0,0E0,0E0],"parents":[2147483647,0,0,1,1,2,2,3,3,4,4,5,5,6,6,7,7,8,8,10,10,12,12,13,13,14,14,15,15,17,17,18,18,19,19,20,20],"right_children":[2,4,6,8,10,12,14,16,18,-1,20,-1,22,24,26,28,-1,30,32,34,36,-1,-1,-1,-1,-1,-1,-1,-1,-1,-1,-1,-1,-1,-1,-1,-1],"split_conditions":[1.8371173E0,2.9E1,4.745E-1,7.2895E-1,-1.6E-2,7.034E-1,2.1E1,3.303039E-2,1.48E1,1.45770535E-2,2.1100384E-1,-5.029377E-4,8.0185E-1,-2.7E-2,3.7E-2,-8E-1,1.5367682E-2,1E0,5E-1,4.165137E-2,1.3E1,3.3239417E-2,1.7094431E-2,-4.1194208E-2,1.0937863E-2,3.0384604E-2,4.7453953E-4,-5.476095E-2,-3.0678831E-2,1.2780234E-2,-2.047125E-2,-2.9552015E-2,1.8396845E-2,-2.87844E-2,2.3206376E-4,-4.6128284E-2,-1.4446805E-2],"split_indices":[1,141,13,25,105,145,176,245,128,0,246,0,134,88,95,84,0,172,203,245,19,0,0,0,0,0,0,0,0,0,0,0,0,0,0,0,0],"split_type":[0,0,0,0,0,0,0,0,0,0,0,0,0,0,0,0,0,0,0,0,0,0,0,0,0,0,0,0,0,0,0,0,0,0,0,0,0],"sum_hessian":[8.449925E2,5.91891E2,2.5310149E2,4.3910956E2,1.5278145E2,1.4812215E2,1.0497935E2,5.803809E1,3.8107147E2,1.6012207E1,1.3676924E2,1.6043926E1,1.3207822E2,4.430207E1,6.0677277E1,3.4947617E1,2.3090471E1,2.9631808E2,8.4753395E1,6.02463E1,7.6522934E1,1.0578303E2,2.6295187E1,2.075121E1,2.3550863E1,3.909936E1,2.1577913E1,1.9150017E1,1.5797601E1,2.6197906E2,3.4339E1,5.897718E1,2.577621E1,3.7047447E1,2.3198853E1,6.060292E1,1.5920014E1],"tree_param":{"num_deleted":"0","num_feature":"249","num_nodes":"37","size_leaf_vector":"1"}},{"base_weights":[1.3608896E-2,-1.372066E-1,1.0041411E0,4.6245113E-2,-9.189258E-1,1.2277505E-2,1.0886538E0,6.5945745E-1,-1.0900963E-1,-1.5286028E-1,-1.3696076E0,3.507134E-2,1.80422E-2,-3.0639542E-2,9.9660224E-1,-1.0220582E0,6.854977E-2,-3.813129E-2,6.230016E-1,-1.2352004E-2,-4.7145706E-2,9.609109E-3,3.3454943E-2,2.2434277E-2,-4.685835E-2,-9.371845E-3,1.4216808E-2,4.662982E-3,3.0242618E-2],"categories":[],"categories_nodes":[],"categories_segments":[],"categories_sizes":[],"default_left":[0,0,0,0,0,0,0,0,0,0,0,0,0,0,0,0,0,0,0,0,0,0,0,0,0,0,0,0,0],"id":24,"left_children":[1,3,5,7,9,-1,11,13,15,17,19,-1,-1,-1,21,23,25,-1,27,-1,-1,-1,-1,-1,-1,-1,-1,-1,-1],"loss_changes":[1.2500665E2,1.04261E2,4.2201767E0,5.6333942E1,4.6815506E1,0E0,1.7916107E0,6.9781136E1,7.6770035E1,4.8333267E1,1.4835373E1,0E0,0E0,0E0,6.933403E0,7.6221275E1,6.1467617E1,0E0,5.254921E0,0E0,0E0,0E0,0E0,0E0,0E0,0E0,0E0,0E0,0E0],"parents":[2147483647,0,0,1,1,2,2,3,3,4,4,6,6,7,7,8,8,9,9,10,10,14,14,15,15,16,16,18,18],"right_children":[2,4,6,8,10,-1,12,14,16,18,20,-1,-1,-1,22,24,26,-1,28,-1,-1,-1,-1,-1,-1,-1,-1,-1,-1],"split_conditions":[9.328E-1,4.3E0,7.286E-1,1.228708E-1,5.1E0,1.2277505E-2,8.314E-1,8E0,2.0934466E-1,7.6666665E0,7.3E-3,3.507134E-2,1.80422E-2,-3.0639542E-2,4.488E-1,4.2333332E1,4.702E-1,-3.813129E-2,-6.9E-3,-1.2352004E-2,-4.7145706E-2,9.609109E-3,3.3454943E-2,2.2434277E-2,-4.685835E-2,-9.371845E-3,1.4216808E-2,4.662982E-3,3.0242618E-2],"split_indices":[248,160,145,248,102,0,145,232,247,18,64,0,0,0,122,39,122,0,76,0,0,0,0,0,0,0,0,0,0],"split_type":[0,0,0,0,0,0,0,0,0,0,0,0,0,0,0,0,0,0,0,0,0,0,0,0,0,0,0,0,0],"sum_hessian":[8.3120856E2,7.226067E2,1.08601845E2,5.864728E2,1.361339E2,1.5404334E1,9.319751E1,1.17564285E2,4.689085E2,5.166244E1,8.447145E1,7.706785E1,1.6129667E1,1.8815332E1,9.8748955E1,7.506832E1,3.9384018E2,2.0798117E1,3.0864326E1,1.602311E1,6.844834E1,1.6211214E1,8.253774E1,1.7236708E1,5.7831615E1,2.0288559E2,1.9095459E2,1.5558995E1,1.5305331E1],"tree_param":{"num_deleted":"0","num_feature":"249","num_nodes":"29","size_leaf_vector":"1"}},{"base_weights":[2.3862343E-2,-1.202635E-1,9.862533E-1,-1.7223755E-3,-1.1925057E0,1.2149444E-2,1.0683109E0,-2.4812713E-1,4.6275315E-1,-4.3442875E-2,-8.377457E-3,1.7420057E-2,3.4290835E-2,-4.191944E-1,3.4957647E-1,3.221856E-2,1.8797562E-1,-1.6931904E-2,1.2937098E-2,2.4814112E-2,-5.426329E-3,2.0141788E-2,-9.660724E-3],"categories":[],"categories_nodes":[],"categories_segments":[],"categories_sizes":[],"default_left":[0,0,0,0,0,0,0,0,0,0,0,0,0,0,0,0,0,0,0,0,0,0,0],"id":25,"left_children":[1,3,5,7,9,-1,11,13,15,-1,-1,-1,-1,17,19,-1,21,-1,-1,-1,-1,-1,-1],"loss_changes":[1.16144875E2,9.200188E1,3.8959808E0,7.531164E1,1.5499123E1,0E0,1.5774307E0,4.4354942E1,3.7485954E1,0E0,0E0,0E0,0E0,4.2040134E1,2.4950607E1,0E0,3.997341E1,0E0,0E0,0E0,0E0,0E0,0E0],"parents":[2147483647,0,0,1,1,2,2,3,3,4,4,6,6,7,7,8,8,13,13,14,14,16,16],"right_children":[2,4,6,8,10,-1,12,14,16,-1,-1,-1,-1,18,20,-1,22,-1,-1,-1,-1,-1,-1],"split_conditions":[9.328E-1,1E1,7.286E-1,8E0,4.5333332E1,1.2149444E-2,5.75E-1,2.3E-2,1.228708E-1,-4.3442875E-2,-8.377457E-3,1.7420057E-2,3.4290835E-2,1.78E-2,4.72E-1,3.221856E-2,9E0,-1.6931904E-2,1.2937098E-2,2.4814112E-2,-5.426329E-3,2.0141788E-2,-9.660724E-3],"split_indices":[248,135,145,0,39,0,165,87,248,0,0,0,0,75,156,0,127,0,0,0,0,0,0],"split_type":[0,0,0,0,0,0,0,0,0,0,0,0,0,0,0,0,0,0,0,0,0,0,0],"sum_hessian":[8.31766E2,7.24678E2,1.0708804E2,6.5459283E2,7.008514E1,1.5168122E1,9.191992E1,4.2872906E2,2.2586377E2,5.35879E1,1.649724E1,1.5077105E1,7.684282E1,3.341827E2,9.4546364E1,6.790693E1,1.5795683E2,2.8632166E2,4.786107E1,4.946271E1,4.5083652E1,8.106883E1,7.6888E1],"tree_param":{"num_deleted":"0","num_feature":"249","num_nodes":"23","size_leaf_vector":"1"}},{"base_weights":[9.299325E-3,-1.3153747E-1,9.570868E-1,-9.4938403E-1,2.776439E-2,3.2091487E-2,1.255862E-2,-1.2859114E0,8.41528E-3,1.2532468E-1,-1.0645363E0,4.767129E-3,-4.7485773E-2,6.23521E-3,8.12497E-1,-4.8637837E-2,-1.54695045E-2,4.3482403E-3,-1.5472541E-2,2.9299801E-2,5.8946568E-3],"categories":[],"categories_nodes":[],"categories_segments":[],"categories_sizes":[],"default_left":[0,0,0,0,0,0,0,0,0,0,0,0,0,0,0,0,0,0,0,0,0],"id":26,"left_children":[1,3,5,7,9,-1,-1,11,-1,13,15,-1,-1,17,19,-1,-1,-1,-1,-1,-1],"loss_changes":[1.10518616E2,9.401275E1,5.156067E0,4.9693436E1,6.429475E1,0E0,0E0,4.0778214E1,0E0,4.5247612E1,1.27945595E1,0E0,0E0,3.4523365E1,7.5305214E0,0E0,0E0,0E0,0E0,0E0,0E0],"parents":[2147483647,0,0,1,1,2,2,3,3,4,4,7,7,9,9,10,10,13,13,14,14],"right_children":[2,4,6,8,10,-1,-1,12,-1,14,16,-1,-1,18,20,-1,-1,-1,-1,-1,-1],"split_conditions":[9.328E-1,7.2895E-1,1.05E0,3.208697E-2,5E0,3.2091487E-2,1.255862E-2,1.4E0,8.41528E-3,1.3E1,5.56E-1,4.767129E-3,-4.7485773E-2,8.8E0,9.6E-2,-4.8637837E-2,-1.54695045E-2,4.3482403E-3,-1.5472541E-2,2.9299801E-2,5.8946568E-3],"split_indices":[248,25,104,245,166,0,0,103,0,0,47,0,0,37,98,0,0,0,0,0,0],"split_type":[0,0,0,0,0,0,0,0,0,0,0,0,0,0,0,0,0,0,0,0,0],"sum_hessian":[8.2221643E2,7.170692E2,1.0514723E2,1.1559175E2,6.014774E2,8.486577E1,2.0281462E1,9.087819E1,2.4713556E1,5.5403796E2,4.7439457E1,1.5479808E1,7.5398384E1,4.7429556E2,7.9742424E1,2.1340334E1,2.6099123E1,3.7631714E2,9.79784E1,6.1654015E1,1.8088413E1],"tree_param":{"num_deleted":"0","num_feature":"249","num_nodes":"21","size_leaf_vector":"1"}},{"base_weights":[2.6873132E-2,-1.08673096E-1,9.5404416E-1,8.71125E-3,-1.1649534E0,3.2169964E-2,1.1913575E-2,6.200812E-1,-1.281968E-1,-4.28752E-2,-5.8406675E-3,-2.5710478E-2,9.092056E-1,-4.025505E-1,3.69059E-1,5.184978E-3,3.0996412E-2,1.5645544E-4,-2.4815496E-2,1.4608567E-2,-1.9176763E-2],"categories":[],"categories_nodes":[],"categories_segments":[],"categories_sizes":[],"default_left":[0,0,0,0,0,0,0,0,0,0,0,0,0,0,0,0,0,0,0,0,0],"id":27,"left_children":[1,3,5,7,9,-1,-1,11,13,-1,-1,-1,15,17,19,-1,-1,-1,-1,-1,-1],"loss_changes":[1.0495449E2,9.049906E1,5.7258835E0,5.5210556E1,1.76642E1,0E0,0E0,5.3145985E1,7.359295E1,0E0,0E0,0E0,8.607292E0,6.0430763E1,2.335929E1,0E0,0E0,0E0,0E0,0E0,0E0],"parents":[2147483647,0,0,1,1,2,2,3,3,4,4,7,7,8,8,12,12,13,13,14,14],"right_children":[2,4,6,8,10,-1,-1,12,14,-1,-1,-1,16,18,20,-1,-1,-1,-1,-1,-1],"split_conditions":[9.328E-1,1E1,1.05E0,1.228708E-1,4.645E-1,3.2169964E-2,1.1913575E-2,8E0,4.751E-1,-4.28752E-2,-5.8406675E-3,-2.5710478E-2,-3.28E-2,9E0,1.9E1,5.184978E-3,3.0996412E-2,1.5645544E-4,-2.4815496E-2,1.4608567E-2,-1.9176763E-2],"split_indices":[248,135,104,248,24,0,0,232,133,0,0,0,87,127,232,0,0,0,0,0,0],"split_type":[0,0,0,0,0,0,0,0,0,0,0,0,0,0,0,0,0,0,0,0,0],"sum_hessian":[8.2946136E2,7.249243E2,1.0453709E2,6.539503E2,7.097396E1,8.425267E1,2.0284416E1,1.1875897E2,5.3519135E2,5.4796715E1,1.6177244E1,1.8627525E1,1.0013145E2,3.4553284E2,1.8965851E2,1.5470809E1,8.466064E1,1.7691455E2,1.6861829E2,1.7099646E2,1.8662056E1],"tree_param":{"num_deleted":"0","num_feature":"249","num_nodes":"21","size_leaf_vector":"1"}},{"base_weights":[3.9946534E-2,-1.1745451E-1,7.81892E-1,-2.0180173E-2,-9.02717E-1,-7.0429062E-3,9.3216676E-1,-1.8835902E-1,4.498422E-1,-3.9232884E-2,4.973208E-3,3.9930245E-1,3.3645753E-2,-4.2058015E-1,2.0461608E-1,-3.6295715E-1,6.611671E-1,-8.051696E-3,2.917033E-2,-1.559089E-2,2.1873273E-2,-1.8031798E-2,1.5650965E-2,-3.1504456E-2,9.839563E-3,2.479091E-2,-6.330392E-3],"categories":[],"categories_nodes":[],"categories_segments":[],"categories_sizes":[],"default_left":[0,0,0,0,0,0,0,0,0,0,0,0,0,0,0,0,0,0,0,0,0,0,0,0,0,0,0],"id":28,"left_children":[1,3,5,7,9,-1,11,13,15,-1,-1,17,-1,19,21,23,25,-1,-1,-1,-1,-1,-1,-1,-1,-1,-1],"loss_changes":[9.585903E1,5.131368E1,2.2598015E1,4.781701E1,3.284993E1,0E0,1.1345322E1,4.0986637E1,2.791837E1,0E0,0E0,1.4703987E1,0E0,3.280821E1,4.319622E1,1.697949E1,1.8884956E1,0E0,0E0,0E0,0E0,0E0,0E0,0E0,0E0,0E0,0E0],"parents":[2147483647,0,0,1,1,2,2,3,3,4,4,6,6,7,7,8,8,11,11,13,13,14,14,15,15,16,16],"right_children":[2,4,6,8,10,-1,12,14,16,-1,-1,18,-1,20,22,24,26,-1,-1,-1,-1,-1,-1,-1,-1,-1,-1],"split_conditions":[2.4E1,1E1,2.3714285E1,2.3E-2,3.53E-2,-7.0429062E-3,7E0,7E0,7.5960055E-2,-3.9232884E-2,4.973208E-3,-3.14E-2,3.3645753E-2,1.0214286E1,-3.1E0,-1.5E-2,2.45E0,-8.051696E-3,2.917033E-2,-1.559089E-2,2.1873273E-2,-1.8031798E-2,1.5650965E-2,-3.1504456E-2,9.839563E-3,2.479091E-2,-6.330392E-3],"split_indices":[176,135,10,87,245,0,0,0,246,0,0,245,0,29,135,95,80,0,0,0,0,0,0,0,0,0,0],"split_type":[0,0,0,0,0,0,0,0,0,0,0,0,0,0,0,0,0,0,0,0,0,0,0,0,0,0,0],"sum_hessian":[8.1555084E2,6.7387067E2,1.4168016E2,6.01761E2,7.210966E1,1.7843372E1,1.2383679E2,4.4453763E2,1.5722336E2,5.216698E1,1.9942678E1,3.451409E1,8.93227E1,2.7981137E2,1.6472627E2,3.18535E1,1.2536986E2,1.6189869E1,1.832422E1,2.5885226E2,2.0959108E1,4.574794E1,1.1897833E2,1.5666493E1,1.6187008E1,1.0578291E2,1.9586946E1],"tree_param":{"num_deleted":"0","num_feature":"249","num_nodes":"27","size_leaf_vector":"1"}},{"base_weights":[1.8485159E-2,-1.1806032E-1,9.4766E-1,4.6017658E-2,-8.1175315E-1,3.1853206E-2,1.1225161E-2,-5.27178E-2,8.867615E-1,-6.844189E-2,-1.2681943E0,6.590167E-2,-7.867161E-1,1.0797258E-2,3.2585748E-2,-3.493833E-2,6.8955874E-1,-4.9342616E-3,-4.4942167E-2,-6.404196E-3,1.2173696E-2,3.4246182E-3,-4.4419814E-2,7.3816883E-3,3.168015E-2],"categories":[],"categories_nodes":[],"categories_segments":[],"categories_sizes":[],"default_left":[0,0,0,0,0,0,0,0,0,0,0,0,0,0,0,0,0,0,0,0,0,0,0,0,0],"id":29,"left_children":[1,3,5,7,9,-1,-1,11,13,15,17,19,21,-1,-1,-1,23,-1,-1,-1,-1,-1,-1,-1,-1],"loss_changes":[1.0428817E2,8.1675415E1,5.668495E0,4.8465553E1,4.597712E1,0E0,0E0,4.562471E1,5.2310066E0,4.708611E1,2.0484314E1,4.290881E1,4.6321148E1,0E0,0E0,0E0,4.510147E0,0E0,0E0,0E0,0E0,0E0,0E0,0E0,0E0],"parents":[2147483647,0,0,1,1,2,2,3,3,4,4,7,7,8,8,9,9,10,10,11,11,12,12,16,16],"right_children":[2,4,6,8,10,-1,-1,12,14,16,18,20,22,-1,-1,-1,24,-1,-1,-1,-1,-1,-1,-1,-1],"split_conditions":[9.328E-1,4.3E0,1.05E0,2.5E1,5.1E0,3.1853206E-2,1.1225161E-2,1.06E1,1.6840704E-1,7.6666665E0,2E-4,0E0,-3.14E-2,1.0797258E-2,3.2585748E-2,-3.493833E-2,4.56E1,-4.9342616E-3,-4.4942167E-2,-6.404196E-3,1.2173696E-2,3.4246182E-3,-4.4419814E-2,7.3816883E-3,3.168015E-2],"split_indices":[248,160,104,176,102,0,0,149,246,18,64,89,245,0,0,0,39,0,0,0,0,0,0,0,0],"split_type":[0,0,0,0,0,0,0,0,0,0,0,0,0,0,0,0,0,0,0,0,0,0,0,0,0],"sum_hessian":[8.162528E2,7.129111E2,1.0334175E2,5.777029E2,1.352082E2,8.433472E1,1.900703E1,5.1834686E2,5.9355972E1,5.2564476E1,8.264374E1,4.4744778E2,7.089911E1,1.8251905E1,4.1104065E1,2.1212019E1,3.1352459E1,1.506203E1,6.75817E1,2.4550964E2,2.0193814E2,3.1388992E1,3.9510117E1,1.6067682E1,1.5284776E1],"tree_param":{"num_deleted":"0","num_feature":"249","num_nodes":"25","size_leaf_vector":"1"}},{"base_weights":[2.7101617E-2,-1.0406684E-1,9.4632256E-1,5.8587488E-2,-7.6973647E-1,3.169604E-2,1.148574E-2,-1.7900728E-1,5.54359E-1,1.2945017E-2,-1.0889565E0,2.6305113E-2,-7.059649E-1,3.2218885E-2,3.1977522E-1,-6.307978E-3,-1.2543169E0,-9.177591E-3,1.5890377E-2,-2.6947634E-2,1.1433062E-2,1.4461203E-2,-2.3599787E-2,-1.4645942E-2,-4.2555932E-2],"categories":[],"categories_nodes":[],"categories_segments":[],"categories_sizes":[],"default_left":[0,0,0,0,0,0,0,0,0,0,0,0,0,0,0,0,0,0,0,0,0,0,0,0,0],"id":30,"left_children":[1,3,5,7,9,-1,-1,11,13,-1,15,17,19,-1,21,-1,23,-1,-1,-1,-1,-1,-1,-1,-1],"loss_changes":[9.8172646E1,7.726422E1,5.074478E0,6.7772835E1,5.4851677E1,0E0,0E0,4.224846E1,2.1620903E1,0E0,1.5224655E1,4.737157E1,2.3696194E1,0E0,2.4311565E1,0E0,9.75502E0,0E0,0E0,0E0,0E0,0E0,0E0,0E0,0E0],"parents":[2147483647,0,0,1,1,2,2,3,3,4,4,7,7,8,8,10,10,11,11,12,12,14,14,16,16],"right_children":[2,4,6,8,10,-1,-1,12,14,-1,16,18,20,-1,22,-1,24,-1,-1,-1,-1,-1,-1,-1,-1],"split_conditions":[9.328E-1,2.96E1,1.05E0,8E0,-7E-3,3.169604E-2,1.148574E-2,1.181E2,1.228708E-1,1.2945017E-2,2.46E0,1.3333334E-1,1E0,3.2218885E-2,3E0,-6.307978E-3,7.5960055E-2,-9.177591E-3,1.5890377E-2,-2.6947634E-2,1.1433062E-2,1.4461203E-2,-2.3599787E-2,-1.4645942E-2,-4.2555932E-2],"split_indices":[248,141,104,0,105,0,0,16,248,0,78,181,59,0,71,0,246,0,0,0,0,0,0,0,0],"split_type":[0,0,0,0,0,0,0,0,0,0,0,0,0,0,0,0,0,0,0,0,0,0,0,0,0],"sum_hessian":[8.084898E2,7.087953E2,9.969451E1,5.7071594E2,1.3807938E2,8.147555E1,1.8218958E1,3.8627115E2,1.844448E2,2.864476E1,1.09434616E2,2.7892694E2,1.0734421E2,5.474632E1,1.2969847E2,1.8339537E1,9.109508E1,1.6814227E2,1.1078465E2,9.1739845E1,1.56043625E1,1.1433099E2,1.536748E1,1.7804304E1,7.329077E1],"tree_param":{"num_deleted":"0","num_feature":"249","num_nodes":"25","size_leaf_vector":"1"}},{"base_weights":[2.710651E-2,-1.2193016E-1,7.328133E-1,-7.377628E-1,1.1753647E-3,-1.0119407E-2,9.03083E-1,-1.2711024E0,5.5736154E-1,-9.6335995E-1,9.289431E-2,4.0002936E-1,3.279719E-2,-4.6041895E-2,-3.728136E-3,3.714069E-2,-5.358716E-3,-5.3151796E-4,-5.189977E-2,-1.5393806E-1,5.2020144E-1,-8.723832E-3,2.9100088E-2,3.3792348E-3,-1.6481426E-2,1.9269867E-2,-2.140863E-2],"categories":[],"categories_nodes":[],"categories_segments":[],"categories_sizes":[],"default_left":[0,0,0,0,0,0,0,0,0,0,0,0,0,0,0,0,0,0,0,0,0,0,0,0,0,0,0],"id":31,"left_children":[1,3,5,7,9,-1,11,13,15,17,19,21,-1,-1,-1,-1,-1,-1,-1,23,25,-1,-1,-1,-1,-1,-1],"loss_changes":[8.562544E1,5.1068886E1,2.6650757E1,7.909333E1,4.95067E1,0E0,1.0470543E1,2.3370178E1,1.7761166E1,3.4622757E1,5.4480583E1,1.5496248E1,0E0,0E0,0E0,0E0,0E0,0E0,0E0,3.4713852E1,2.9388222E1,0E0,0E0,0E0,0E0,0E0,0E0],"parents":[2147483647,0,0,1,1,2,2,3,3,4,4,6,6,7,7,8,8,9,9,10,10,11,11,19,19,20,20],"right_children":[2,4,6,8,10,-1,12,14,16,18,20,22,-1,-1,-1,-1,-1,-1,-1,24,26,-1,-1,-1,-1,-1,-1],"split_conditions":[2.4E1,7.281E-1,2.3714285E1,3.208697E-2,1.2922882E-1,-1.0119407E-2,7E0,-1.9E0,3.226E-1,7.938E-1,3.86E0,-3.14E-2,3.279719E-2,-4.6041895E-2,-3.728136E-3,3.714069E-2,-5.358716E-3,-5.3151796E-4,-5.189977E-2,4.388889E1,1.82E1,-8.723832E-3,2.9100088E-2,3.3792348E-3,-1.6481426E-2,1.9269867E-2,-2.140863E-2],"split_indices":[176,25,10,245,247,0,0,82,34,134,67,245,0,0,0,0,0,0,0,126,146,0,0,0,0,0,0],"split_type":[0,0,0,0,0,0,0,0,0,0,0,0,0,0,0,0,0,0,0,0,0,0,0,0,0,0,0],"sum_hessian":[8.086727E2,6.6868414E2,1.399886E2,1.1014372E2,5.585404E2,1.8705095E1,1.2128351E2,7.820655E1,3.1937174E1,4.6565926E1,5.1197452E2,3.5405193E1,8.587832E1,6.2826313E1,1.5380236E1,1.6095201E1,1.5841972E1,2.1940191E1,2.4625732E1,3.2488394E2,1.8709056E2,1.621068E1,1.9194511E1,1.9446274E2,1.304212E2,1.713334E2,1.5757152E1],"tree_param":{"num_deleted":"0","num_feature":"249","num_nodes":"27","size_leaf_vector":"1"}},{"base_weights":[2.240257E-2,-1.0481907E-1,9.380764E-1,2.8553607E-3,-1.0868176E0,3.1052152E-2,1.3723105E-2,-2.4115258E-1,3.7007317E-1,-4.0176883E-2,-5.382018E-3,-7.422632E-2,-7.9805744E-1,7.0675933E-1,-1.5135794E-2,-1.1481665E-2,1.0251237E-2,-1.1040978E-2,-3.9498713E-2,-1.7978045E-3,2.4751963E-2,1.329955E-2,-2.0319967E-2],"categories":[],"categories_nodes":[],"categories_segments":[],"categories_sizes":[],"default_left":[0,0,0,0,0,0,0,0,0,0,0,0,0,0,0,0,0,0,0,0,0,0,0],"id":32,"left_children":[1,3,5,7,9,-1,-1,11,13,-1,-1,15,17,19,21,-1,-1,-1,-1,-1,-1,-1,-1],"loss_changes":[9.356561E1,7.4700775E1,3.1740417E0,5.716662E1,1.5046707E1,0E0,0E0,3.5183624E1,3.3301693E1,0E0,0E0,3.837764E1,1.8061092E1,1.2712242E1,3.7245358E1,0E0,0E0,0E0,0E0,0E0,0E0,0E0,0E0],"parents":[2147483647,0,0,1,1,2,2,3,3,4,4,7,7,8,8,11,11,12,12,13,13,14,14],"right_children":[2,4,6,8,10,-1,-1,12,14,-1,-1,16,18,20,22,-1,-1,-1,-1,-1,-1,-1,-1],"split_conditions":[9.328E-1,1E1,1.05E0,7E0,4.5333332E1,3.1052152E-2,1.3723105E-2,4.952E-1,9E0,-4.0176883E-2,-5.382018E-3,4.664E-1,7.8265E-1,2E1,-3.14E-2,-1.1481665E-2,1.0251237E-2,-1.1040978E-2,-3.9498713E-2,-1.7978045E-3,2.4751963E-2,1.329955E-2,-2.0319967E-2],"split_indices":[248,135,104,0,39,0,0,35,127,0,0,144,134,152,245,0,0,0,0,0,0,0,0],"split_type":[0,0,0,0,0,0,0,0,0,0,0,0,0,0,0,0,0,0,0,0,0,0,0],"sum_hessian":[7.973491E2,7.0134875E2,9.600037E1,6.335678E2,6.7780914E1,7.744115E1,1.8559225E1,3.8056238E2,2.5300545E2,5.202658E1,1.5754334E1,2.9495734E2,8.5605034E1,1.3453044E2,1.18475006E2,1.6985667E2,1.2510066E2,4.8983257E1,3.6621777E1,1.777703E1,1.1675341E2,7.013023E1,4.8344776E1],"tree_param":{"num_deleted":"0","num_feature":"249","num_nodes":"23","size_leaf_vector":"1"}},{"base_weights":[1.41079705E-2,-1.2841228E-1,7.150074E-1,4.069027E-1,-2.5963095E-1,9.5457695E-2,9.833514E-1,-3.658971E-1,6.523674E-1,4.843963E-1,-3.9027753E-1,-1.670869E-2,2.1422744E-2,3.2933217E-2,9.689851E-3,1.105018E-2,-3.2962378E-2,9.201127E-1,-8.824972E-4,8.777928E-1,-3.250391E-2,-8.174272E-1,-1.686699E-1,3.3200674E-2,5.806945E-3,1.17163E-3,3.5170738E-2,-3.0729288E-2,1.1103147E-2,-1.7211143E-2,7.4417237E-3],"categories":[],"categories_nodes":[],"categories_segments":[],"categories_sizes":[],"default_left":[0,0,0,0,0,0,0,0,0,0,0,0,0,0,0,0,0,0,0,0,0,0,0,0,0,0,0,0,0,0,0],"id":33,"left_children":[1,3,5,7,9,11,13,15,17,19,21,-1,-1,-1,-1,-1,-1,23,-1,25,-1,27,29,-1,-1,-1,-1,-1,-1,-1,-1],"loss_changes":[8.0857414E1,4.7301373E1,2.223713E1,2.5684607E1,5.289716E1,1.8563572E1,6.0370636E0,1.8737148E1,1.8853123E1,5.1982018E1,4.309397E1,0E0,0E0,0E0,0E0,0E0,0E0,9.113869E0,0E0,1.5911911E1,0E0,3.9425087E1,5.2150177E1,0E0,0E0,0E0,0E0,0E0,0E0,0E0,0E0],"parents":[2147483647,0,0,1,1,2,2,3,3,4,4,5,5,6,6,7,7,8,8,9,9,10,10,17,17,19,19,21,21,22,22],"right_children":[2,4,6,8,10,12,14,16,18,20,22,-1,-1,-1,-1,-1,-1,24,-1,26,-1,28,30,-1,-1,-1,-1,-1,-1,-1,-1],"split_conditions":[2.4E1,-1.2E0,7E0,-3.3E0,2.39E1,1E-1,2.94E1,5.16E-1,2.82E1,1.68E2,1.125E2,-1.670869E-2,2.1422744E-2,3.2933217E-2,9.689851E-3,1.105018E-2,-3.2962378E-2,1.55E0,-8.824972E-4,4.38E1,-3.250391E-2,7.7E1,3.9427534E-2,3.3200674E-2,5.806945E-3,1.17163E-3,3.5170738E-2,-3.0729288E-2,1.1103147E-2,-1.7211143E-2,7.4417237E-3],"split_indices":[176,92,0,73,130,58,141,156,141,244,125,0,0,0,0,0,0,71,0,39,0,43,245,0,0,0,0,0,0,0,0],"split_type":[0,0,0,0,0,0,0,0,0,0,0,0,0,0,0,0,0,0,0,0,0,0,0,0,0,0,0,0,0,0,0],"sum_hessian":[8.0384534E2,6.6901416E2,1.3483116E2,1.3042972E2,5.385845E2,4.1906742E1,9.292442E1,3.0910463E1,9.951925E1,7.929437E1,4.592901E2,2.0257524E1,2.1649218E1,7.768462E1,1.5239798E1,1.5733043E1,1.517742E1,7.127107E1,2.824818E1,6.424586E1,1.5048512E1,1.545887E2,3.047014E2,5.554728E1,1.5723793E1,1.7552074E1,4.6693787E1,1.321024E2,2.2486311E1,1.5450145E2,1.5019994E2],"tree_param":{"num_deleted":"0","num_feature":"249","num_nodes":"31","size_leaf_vector":"1"}},{"base_weights":[2.5088478E-2,-9.061712E-2,8.9496386E-1,6.5087366E-1,-2.2987898E-1,9.911728E-1,1.0049611E-2,-2.4810696E-2,9.2014813E-1,-2.7126292E-2,-8.175108E-1,1.3813773E-2,3.3165425E-2,6.033622E-3,3.161734E-2,-3.9546278E-1,3.840739E-1,1.23004755E-2,-1.0751258E0,1.2706991E-2,-1.7835174E-2,-1.0170934E-2,1.6425429E-2,-2.156466E-3,-3.6638122E-2],"categories":[],"categories_nodes":[],"categories_segments":[],"categories_sizes":[],"default_left":[0,0,0,0,0,0,0,0,0,0,0,0,0,0,0,0,0,0,0,0,0,0,0,0,0],"id":34,"left_children":[1,3,5,7,9,11,-1,-1,13,15,17,-1,-1,-1,-1,19,21,-1,23,-1,-1,-1,-1,-1,-1],"loss_changes":[8.038584E1,7.275352E1,3.9904785E0,4.5850365E1,7.04217E1,3.278862E0,0E0,0E0,8.363617E0,6.7517296E1,4.9089516E1,0E0,0E0,0E0,0E0,3.8937508E1,2.5288462E1,0E0,1.7944962E1,0E0,0E0,0E0,0E0,0E0,0E0],"parents":[2147483647,0,0,1,1,2,2,3,3,4,4,5,5,8,8,9,9,10,10,15,15,16,16,18,18],"right_children":[2,4,6,8,10,12,-1,-1,14,16,18,-1,-1,-1,-1,20,22,-1,24,-1,-1,-1,-1,-1,-1],"split_conditions":[9.351447E-1,1.186E-1,1.6666666E0,8E0,2.9E1,-3.05E-2,1.0049611E-2,-2.4810696E-2,-2.42E-2,4.702E-1,-7E-3,1.3813773E-2,3.3165425E-2,6.033622E-3,3.161734E-2,1.093E2,7.5960055E-2,1.23004755E-2,-8.4E-3,1.2706991E-2,-1.7835174E-2,-1.0170934E-2,1.6425429E-2,-2.156466E-3,-3.6638122E-2],"split_indices":[248,248,70,232,141,66,0,0,65,122,105,0,0,0,0,136,246,0,86,0,0,0,0,0,0],"split_type":[0,0,0,0,0,0,0,0,0,0,0,0,0,0,0,0,0,0,0,0,0,0,0,0,0],"sum_hessian":[7.9266235E2,7.00882E2,9.1780334E1,1.0931889E2,5.915631E2,7.655221E1,1.5228127E1,1.603809E1,9.328081E1,4.4174805E2,1.4981505E2,1.5816766E1,6.0735443E1,1.5768594E1,7.7512215E1,2.3344426E2,2.083038E2,2.5579924E1,1.2423513E2,4.4904873E1,1.8853938E2,3.766765E1,1.7063615E2,1.643691E1,1.0779822E2],"tree_param":{"num_deleted":"0","num_feature":"249","num_nodes":"25","size_leaf_vector":"1"}},{"base_weights":[2.6582992E-2,-8.985576E-2,8.9671034E-1,5.814054E-1,-2.2843696E-1,1.3535049E-2,1.0273633E0,8.787209E-1,-3.5762794E-2,3.40602E-1,-4.1529354E-1,3.3852704E-2,1.8455517E-2,3.4878247E-3,1.0009257E0,5.506119E-1,-3.320318E-1,-5.8217883E-1,1.6281804E-1,1.4738095E-2,3.2721892E-2,2.5995443E-2,-6.07006E-3,1.0066263E-2,-3.247454E-2,-2.8224437E-2,-7.324384E-3,1.5771536E-2,-2.3010334E-2],"categories":[],"categories_nodes":[],"categories_segments":[],"categories_sizes":[],"default_left":[0,0,0,0,0,0,0,0,0,0,0,0,0,0,0,0,0,0,0,0,0,0,0,0,0,0,0,0,0],"id":35,"left_children":[1,3,5,7,9,-1,11,13,-1,15,17,-1,-1,-1,19,21,23,25,27,-1,-1,-1,-1,-1,-1,-1,-1,-1,-1],"loss_changes":[8.10427E1,6.560158E1,4.1259537E0,6.557948E1,6.249871E1,0E0,1.0429688E0,9.174698E0,0E0,2.0955223E1,4.292251E1,0E0,0E0,0E0,2.5507507E0,2.714603E1,1.872421E1,4.0832214E1,3.4507088E1,0E0,0E0,0E0,0E0,0E0,0E0,0E0,0E0,0E0,0E0],"parents":[2147483647,0,0,1,1,2,2,3,3,4,4,6,6,7,7,9,9,10,10,14,14,15,15,16,16,17,17,18,18],"right_children":[2,4,6,8,10,-1,12,14,-1,16,18,-1,-1,-1,20,22,24,26,28,-1,-1,-1,-1,-1,-1,-1,-1,-1,-1],"split_conditions":[9.328E-1,1.228708E-1,2E0,1.67E1,1.23E1,1.3535049E-2,1.2E1,1E1,-3.5762794E-2,1.7E-1,7.5E-1,3.3852704E-2,1.8455517E-2,3.4878247E-3,4.499E-1,7.9E1,4.681E-1,1.14E2,4.5333332E1,1.4738095E-2,3.2721892E-2,2.5995443E-2,-6.07006E-3,1.0066263E-2,-3.247454E-2,-2.8224437E-2,-7.324384E-3,1.5771536E-2,-2.3010334E-2],"split_indices":[248,248,103,97,128,0,175,232,0,96,203,0,0,0,122,152,13,125,17,0,0,0,0,0,0,0,0,0,0],"split_type":[0,0,0,0,0,0,0,0,0,0,0,0,0,0,0,0,0,0,0,0,0,0,0,0,0,0,0,0,0],"sum_hessian":[7.9391644E2,7.0149274E2,9.2423706E1,1.18576225E2,5.829165E2,2.3497383E1,6.892632E1,1.0256079E2,1.6015436E1,1.4329268E2,4.396238E2,5.1978703E1,1.694762E1,1.5045643E1,8.7515144E1,1.09815025E2,3.3477654E1,3.4153632E2,9.808749E1,1.5549598E1,7.1965546E1,7.742693E1,3.2388092E1,1.809079E1,1.5386863E1,1.6355684E2,1.7797949E2,7.140926E1,2.6678223E1],"tree_param":{"num_deleted":"0","num_feature":"249","num_nodes":"29","size_leaf_vector":"1"}},{"base_weights":[2.3864169E-2,-8.808512E-2,8.7504256E-1,4.609727E-2,-7.055123E-1,1.0122055E-2,1.0137739E0,9.5801497E-1,-3.314218E-2,-6.952461E-2,-1.1468668E0,1.6654242E-2,3.331107E-2,3.4065247E-2,1.503408E-2,-8.908261E-1,6.953775E-2,-3.2906514E-2,6.6515887E-1,-4.9224324E-3,-4.2149596E-2,1.2815699E-2,-4.860674E-2,-2.6954662E-3,2.0832313E-2,6.5772473E-3,3.045957E-2],"categories":[],"categories_nodes":[],"categories_segments":[],"categories_sizes":[],"default_left":[0,0,0,0,0,0,0,0,0,0,0,0,0,0,0,0,0,0,0,0,0,0,0,0,0,0,0],"id":36,"left_children":[1,3,5,7,9,-1,11,13,15,17,19,-1,-1,-1,-1,21,23,-1,25,-1,-1,-1,-1,-1,-1,-1,-1],"loss_changes":[7.546199E1,5.8071228E1,5.7776947E0,4.1866806E1,3.4588318E1,0E0,1.4458542E0,2.126545E0,4.707755E1,4.208571E1,1.769764E1,0E0,0E0,0E0,0E0,5.6695602E1,4.7634228E1,0E0,4.236823E0,0E0,0E0,0E0,0E0,0E0,0E0,0E0,0E0],"parents":[2147483647,0,0,1,1,2,2,3,3,4,4,6,6,7,7,8,8,9,9,10,10,15,15,16,16,18,18],"right_children":[2,4,6,8,10,-1,12,14,16,18,20,-1,-1,-1,-1,22,24,-1,26,-1,-1,-1,-1,-1,-1,-1,-1],"split_conditions":[9.328E-1,4.3E0,1.6E0,3.8376212E-2,5.1E0,1.0122055E-2,8.1252545E-2,1.164E2,1.35E-1,7.6666665E0,7.3E-3,1.6654242E-2,3.331107E-2,3.4065247E-2,1.503408E-2,1.0008E2,4.867E-1,-3.2906514E-2,0E0,-4.9224324E-3,-4.2149596E-2,1.2815699E-2,-4.860674E-2,-2.6954662E-3,2.0832313E-2,6.5772473E-3,3.045957E-2],"split_indices":[248,160,103,248,102,0,245,27,247,18,64,0,0,0,0,53,122,0,108,0,0,0,0,0,0,0,0],"split_type":[0,0,0,0,0,0,0,0,0,0,0,0,0,0,0,0,0,0,0,0,0,0,0,0,0,0,0],"sum_hessian":[7.858336E2,6.9576526E2,9.006836E1,5.726737E2,1.2309155E2,2.0325453E1,6.974291E1,4.431265E1,5.283611E2,5.165376E1,7.14378E1,1.5021399E1,5.472151E1,2.9301813E1,1.5010838E1,5.5162205E1,4.7319888E2,2.1296171E1,3.035759E1,1.5781944E1,5.5655853E1,1.980041E1,3.5361794E1,3.7801157E2,9.5187294E1,1.516036E1,1.5197228E1],"tree_param":{"num_deleted":"0","num_feature":"249","num_nodes":"27","size_leaf_vector":"1"}},{"base_weights":[1.8979957E-2,-9.5870346E-2,8.931159E-1,4.7335684E-2,-6.986859E-1,2.999981E-2,1.1421174E-2,-6.1771683E-2,8.631054E-1,1.1427077E-2,-9.7837466E-1,4.1475065E-2,-6.1759996E-1,1.2025059E-2,9.9531555E-1,-3.841934E-2,-4.2721704E-1,4.3621613E-3,-2.1901289E-2,-2.8190183E-2,1.9059785E-2,1.8060904E-2,3.38338E-2,-4.167665E-2,6.6014132E-3],"categories":[],"categories_nodes":[],"categories_segments":[],"categories_sizes":[],"default_left":[0,0,0,0,0,0,0,0,0,0,0,0,0,0,0,0,0,0,0,0,0,0,0,0,0],"id":37,"left_children":[1,3,5,7,9,-1,-1,11,13,-1,15,17,19,-1,21,-1,23,-1,-1,-1,-1,-1,-1,-1,-1],"loss_changes":[7.959955E1,6.057637E1,3.8681183E0,5.0727608E1,4.1581192E1,0E0,0E0,2.8963709E1,2.8922768E0,0E0,1.633992E1,3.401627E1,3.3177914E1,0E0,7.5045776E-1,0E0,2.6807013E1,0E0,0E0,0E0,0E0,0E0,0E0,0E0,0E0],"parents":[2147483647,0,0,1,1,2,2,3,3,4,4,7,7,8,8,10,10,11,11,12,12,14,14,16,16],"right_children":[2,4,6,8,10,-1,-1,12,14,-1,16,18,20,-1,22,-1,24,-1,-1,-1,-1,-1,-1,-1,-1],"split_conditions":[9.328E-1,2.96E1,1.05E0,1.3E1,-7E-3,2.999981E-2,1.1421174E-2,5.415E-2,1.5341958E-1,1.1427077E-2,7.817E-1,1.0333333E1,2.6535547E-1,1.2025059E-2,4.628E-1,-3.841934E-2,1.2552992E-1,4.3621613E-3,-2.1901289E-2,-2.8190183E-2,1.9059785E-2,1.8060904E-2,3.38338E-2,-4.167665E-2,6.6014132E-3],"split_indices":[248,141,104,0,105,0,0,77,246,0,123,149,245,0,35,0,247,0,0,0,0,0,0,0,0],"split_type":[0,0,0,0,0,0,0,0,0,0,0,0,0,0,0,0,0,0,0,0,0,0,0,0,0],"sum_hessian":[7.867774E2,6.9668E2,9.00974E1,5.640326E2,1.3264738E2,7.248915E1,1.760825E1,4.9880002E2,6.5232574E1,2.6924276E1,1.0572311E2,4.2176666E2,7.703338E1,1.6805433E1,4.8427143E1,6.621665E1,3.9506454E1,3.73469E2,4.829767E1,6.186902E1,1.516436E1,1.5566966E1,3.2860176E1,1.5154207E1,2.4352245E1],"tree_param":{"num_deleted":"0","num_feature":"249","num_nodes":"25","size_leaf_vector":"1"}},{"base_weights":[2.4047058E-2,-8.610312E-2,8.770975E-1,5.6210157E-2,-5.299952E-1,9.832984E-1,9.991476E-3,-1.9084786E-1,3.3239803E-1,1.8330256E-2,-6.9990927E-1,3.2524034E-2,1.9498458E-2,5.545964E-1,-3.8107428E-1,4.7943023E-1,-5.991037E-1,-3.8158947E-1,-1.2003306E0,2.9962262E-2,-9.358518E-3,-1.4591034E-2,1.777385E-2,1.770221E-2,-2.4787445E-2,-4.2772595E-2,5.819846E-3,-3.0100768E-2,-4.786373E-3,-4.254228E-2,-1.7895427E-2],"categories":[],"categories_nodes":[],"categories_segments":[],"categories_sizes":[],"default_left":[0,0,0,0,0,0,0,0,0,0,0,0,0,0,0,0,0,0,0,0,0,0,0,0,0,0,0,0,0,0,0],"id":38,"left_children":[1,3,5,7,9,11,-1,13,15,-1,17,-1,-1,19,21,23,25,27,29,-1,-1,-1,-1,-1,-1,-1,-1,-1,-1,-1,-1],"loss_changes":[7.354901E1,4.385817E1,4.123062E0,3.596508E1,3.354489E1,5.384979E-1,0E0,3.9735126E1,3.4641766E1,0E0,2.215306E1,0E0,0E0,2.2740461E1,2.3369537E1,3.2172764E1,2.357815E1,1.2258255E1,5.0882874E0,0E0,0E0,0E0,0E0,0E0,0E0,0E0,0E0,0E0,0E0,0E0,0E0],"parents":[2147483647,0,0,1,1,2,2,3,3,4,4,5,5,7,7,8,8,10,10,13,13,14,14,15,15,16,16,17,17,18,18],"right_children":[2,4,6,8,10,12,-1,14,16,-1,18,-1,-1,20,22,24,26,28,30,-1,-1,-1,-1,-1,-1,-1,-1,-1,-1,-1,-1],"split_conditions":[3.558721E0,2.9E1,1.76E-1,4.664E-1,-1.7E-2,2.175E1,9.991476E-3,-2.25E-1,1E0,1.8330256E-2,2.981E-1,3.2524034E-2,1.9498458E-2,-2E-1,2.86E1,1.232E2,-3.5E0,-1.62E-2,1.131E2,2.9962262E-2,-9.358518E-3,-1.4591034E-2,1.777385E-2,1.770221E-2,-2.4787445E-2,-4.2772595E-2,5.819846E-3,-3.0100768E-2,-4.786373E-3,-4.254228E-2,-1.7895427E-2],"split_indices":[1,141,98,144,105,220,0,197,172,0,246,0,0,124,119,38,231,88,16,0,0,0,0,0,0,0,0,0,0,0,0],"split_type":[0,0,0,0,0,0,0,0,0,0,0,0,0,0,0,0,0,0,0,0,0,0,0,0,0,0,0,0,0,0,0],"sum_hessian":[7.766061E2,6.890756E2,8.753048E1,5.225994E2,1.6647621E2,7.142231E1,1.6108162E1,2.755995E2,2.4699992E2,2.0675945E1,1.4580028E2,5.0685772E1,2.073654E1,5.493125E1,2.2066824E2,2.1444388E2,3.255604E1,9.16353E1,5.4164978E1,3.6344234E1,1.8587017E1,2.0031229E2,2.0355951E1,1.9891379E2,1.5530087E1,1.534488E1,1.7211163E1,2.1905806E1,6.972949E1,3.7461796E1,1.670318E1],"tree_param":{"num_deleted":"0","num_feature":"249","num_nodes":"31","size_leaf_vector":"1"}},{"base_weights":[3.2035739E-3,-1.0729026E-1,8.466175E-1,3.5237458E-2,-7.309038E-1,9.751416E-1,8.30727E-3,-6.939085E-2,7.0644134E-1,-6.807063E-2,-1.1391383E0,1.8305182E-2,3.1730507E-2,1.183042E-2,-8.692732E-1,3.0869013E-2,2.086739E-3,-2.9604932E-2,1.7110256E-2,-4.036949E-2,-8.111046E-3,4.5167687E-3,-1.4132997E-2,-5.892971E-5,-4.054807E-2],"categories":[],"categories_nodes":[],"categories_segments":[],"categories_sizes":[],"default_left":[0,0,0,0,0,0,0,0,0,0,0,0,0,0,0,0,0,0,0,0,0,0,0,0,0],"id":39,"left_children":[1,3,5,7,9,11,-1,13,15,17,19,-1,-1,21,23,-1,-1,-1,-1,-1,-1,-1,-1,-1,-1],"loss_changes":[7.1702705E1,6.051506E1,5.612797E0,3.914706E1,3.3739304E1,3.6364746E-1,0E0,3.1470844E1,1.4971333E1,3.096514E1,1.277063E1,0E0,0E0,2.9356987E1,1.825721E1,0E0,0E0,0E0,0E0,0E0,0E0,0E0,0E0,0E0,0E0],"parents":[2147483647,0,0,1,1,2,2,3,3,4,4,5,5,7,7,8,8,9,9,10,10,13,13,14,14],"right_children":[2,4,6,8,10,12,-1,14,16,18,20,-1,-1,22,24,-1,-1,-1,-1,-1,-1,-1,-1,-1,-1],"split_conditions":[9.328E-1,4.3E0,1.05E0,1.3E1,5.1E0,9.4732463E-1,8.30727E-3,1.226E2,-3.478925E-2,7.6666665E0,4.5E0,1.8305182E-2,3.1730507E-2,1.4555555E1,3.6880943E-1,3.0869013E-2,2.086739E-3,-2.9604932E-2,1.7110256E-2,-4.036949E-2,-8.111046E-3,4.5167687E-3,-1.4132997E-2,-5.892971E-5,-4.054807E-2],"split_indices":[248,160,104,0,102,248,0,38,245,18,103,0,0,139,248,0,0,0,0,0,0,0,0,0,0],"split_type":[0,0,0,0,0,0,0,0,0,0,0,0,0,0,0,0,0,0,0,0,0,0,0,0,0],"sum_hessian":[7.630787E2,6.75918E2,8.7160675E1,5.513192E2,1.2459882E2,6.9525986E1,1.7634684E1,4.781333E2,7.318589E1,4.866E1,7.593883E1,1.659008E1,5.2935905E1,4.3550665E2,4.2626644E1,4.7452858E1,2.5733028E1,1.9694868E1,2.8965134E1,6.0188545E1,1.5750282E1,3.3987146E2,9.5635185E1,1.6173717E1,2.6452929E1],"tree_param":{"num_deleted":"0","num_feature":"249","num_nodes":"25","size_leaf_vector":"1"}},{"base_weights":[8.609296E-3,-9.925745E-2,8.590112E-1,3.3588458E-2,-6.9344723E-1,1.1696382E-2,3.0089514E-2,-4.4285253E-2,8.734379E-1,-1.0356672E0,-0E0,6.1536264E-2,-6.9571537E-1,1.5473089E-2,3.0000785E-2,-1.2982744E0,-2.9355434E-3,2.009151E-2,-3.1579938E-2,6.27915E-3,-1.4863005E-2,5.0410694E-3,-4.2500466E-2,-2.2298895E-2,-4.3676164E-2],"categories":[],"categories_nodes":[],"categories_segments":[],"categories_sizes":[],"default_left":[0,0,0,0,0,0,0,0,0,0,0,0,0,0,0,0,0,0,0,0,0,0,0,0,0],"id":40,"left_children":[1,3,5,7,9,-1,-1,11,13,15,17,19,21,-1,-1,23,-1,-1,-1,-1,-1,-1,-1,-1,-1],"loss_changes":[7.141681E1,5.4595036E1,4.7213745E0,3.722761E1,2.9906673E1,0E0,0E0,3.59791E1,7.0059204E-1,2.0140594E1,3.231753E1,3.6909878E1,4.6270245E1,0E0,0E0,2.9145508E0,0E0,0E0,0E0,0E0,0E0,0E0,0E0,0E0,0E0],"parents":[2147483647,0,0,1,1,2,2,3,3,4,4,7,7,8,8,9,9,10,10,11,11,12,12,15,15],"right_children":[2,4,6,8,10,-1,-1,12,14,16,18,20,22,-1,-1,24,-1,-1,-1,-1,-1,-1,-1,-1,-1],"split_conditions":[9.328E-1,4.3E0,2E0,3.558721E0,4.5E1,1.1696382E-2,3.0089514E-2,1.06E1,1E1,3.78E-2,8E-1,1.4555555E1,-3.14E-2,1.5473089E-2,3.0000785E-2,6.21099E-1,-2.9355434E-3,2.009151E-2,-3.1579938E-2,6.27915E-3,-1.4863005E-2,5.0410694E-3,-4.2500466E-2,-2.2298895E-2,-4.3676164E-2],"split_indices":[248,160,103,1,39,0,0,149,2,245,82,139,245,0,0,247,0,0,0,0,0,0,0,0,0],"split_type":[0,0,0,0,0,0,0,0,0,0,0,0,0,0,0,0,0,0,0,0,0,0,0,0,0],"sum_hessian":[7.722101E2,6.865415E2,8.5668564E1,5.622243E2,1.2431718E2,2.2347963E1,6.3320602E1,5.1592346E2,4.6300854E1,8.251253E1,4.180465E1,4.4498798E2,7.0935486E1,1.5375863E1,3.092499E1,6.361144E1,1.890109E1,2.5955181E1,1.5849468E1,3.5309576E2,9.189222E1,3.2780598E1,3.8154892E1,1.701827E1,4.6593166E1],"tree_param":{"num_deleted":"0","num_feature":"249","num_nodes":"25","size_leaf_vector":"1"}},{"base_weights":[1.437219E-2,-1.17920466E-1,7.086805E-1,3.819689E-1,-2.4174495E-1,8.2847625E-1,-5.7818304E-4,-3.4883913E-1,6.35951E-1,4.9374473E-1,-3.72531E-1,9.54695E-3,3.0124357E-2,6.2440317E-3,-2.8401297E-2,1.272511E-1,9.7517663E-1,8.326099E-1,-2.4861833E-2,-7.4029434E-1,-1.5978171E-1,-9.983924E-3,2.1239683E-2,1.3542287E-2,3.468866E-2,3.3536676E-2,-1.6822657E-3,5.660478E-4,-3.0990925E-2,4.610939E-3,-1.7930219E-2],"categories":[],"categories_nodes":[],"categories_segments":[],"categories_sizes":[],"default_left":[0,0,0,0,0,0,0,0,0,0,0,0,0,0,0,0,0,0,0,0,0,0,0,0,0,0,0,0,0,0,0],"id":41,"left_children":[1,3,5,7,9,11,-1,13,15,17,19,-1,-1,-1,-1,21,23,25,-1,27,29,-1,-1,-1,-1,-1,-1,-1,-1,-1,-1],"loss_changes":[7.146928E1,4.0485985E1,1.1138557E1,2.4601458E1,5.0743523E1,8.58844E0,0E0,1.2082129E1,1.6203598E1,3.7069477E1,3.4423637E1,0E0,0E0,0E0,0E0,1.16877775E1,3.946457E0,1.6814236E1,0E0,3.6466805E1,3.9561775E1,0E0,0E0,0E0,0E0,0E0,0E0,0E0,0E0,0E0,0E0],"parents":[2147483647,0,0,1,1,2,2,3,3,4,4,5,5,7,7,8,8,9,9,10,10,15,15,16,16,17,17,19,19,20,20],"right_children":[2,4,6,8,10,12,-1,14,16,18,20,-1,-1,-1,-1,22,24,26,-1,28,30,-1,-1,-1,-1,-1,-1,-1,-1,-1,-1],"split_conditions":[2.4E1,-1.2E0,5.95E0,-3.3E0,2.39E1,3.6E0,-5.7818304E-4,6.14E-1,-7E-1,8.2E1,1.129E2,9.54695E-3,3.0124357E-2,6.2440317E-3,-2.8401297E-2,8.166667E0,-1.25E1,3.635E-1,-2.4861833E-2,-2.8E-2,7.767E-1,-9.983924E-3,2.1239683E-2,1.3542287E-2,3.468866E-2,3.3536676E-2,-1.6822657E-3,5.660478E-4,-3.0990925E-2,4.610939E-3,-1.7930219E-2],"split_indices":[176,92,3,73,130,33,0,153,101,152,125,0,0,0,0,138,97,12,0,86,14,0,0,0,0,0,0,0,0,0,0],"split_type":[0,0,0,0,0,0,0,0,0,0,0,0,0,0,0,0,0,0,0,0,0,0,0,0,0,0,0,0,0,0,0],"sum_hessian":[7.723435E2,6.497661E2,1.225774E2,1.2768783E2,5.2207825E2,1.05372665E2,1.7204731E1,3.243403E1,9.525381E1,7.763651E1,4.4444177E2,2.886445E1,7.650822E1,1.7206501E1,1.5227526E1,3.956183E1,5.5691975E1,6.2571194E1,1.5065322E1,1.6054701E2,2.8389474E2,2.2262918E1,1.7298912E1,1.6529825E1,3.9162148E1,4.7231144E1,1.5340051E1,4.4914673E1,1.1563234E2,1.6580829E2,1.1808645E2],"tree_param":{"num_deleted":"0","num_feature":"249","num_nodes":"31","size_leaf_vector":"1"}},{"base_weights":[6.2015834E-3,-9.593234E-2,8.532091E-1,5.217821E-1,-2.1761201E-1,8.884616E-3,1.0034611E0,-2.4260309E-2,8.27733E-1,2.7784824E-1,-3.8211372E-1,3.2957073E-2,1.8110301E-2,9.848895E-1,5.0234667E-4,5.352594E-1,-3.2096523E-1,2.8720938E-2,-4.3584985E-1,3.3898793E-2,1.0761298E-2,2.847962E-2,-9.491124E-3,5.136685E-3,-2.5687214E-2,-1.5006689E-2,2.23679E-2],"categories":[],"categories_nodes":[],"categories_segments":[],"categories_sizes":[],"default_left":[0,0,0,0,0,0,0,0,0,0,0,0,0,0,0,0,0,0,0,0,0,0,0,0,0,0,0],"id":42,"left_children":[1,3,5,7,9,-1,11,-1,13,15,17,-1,-1,19,-1,21,23,-1,25,-1,-1,-1,-1,-1,-1,-1,-1],"loss_changes":[6.681183E1,5.1747528E1,5.9743385E0,4.7416756E1,4.7147278E1,0E0,6.0463715E-1,0E0,1.1544369E1,2.2626783E1,3.1868488E1,0E0,0E0,5.803032E0,0E0,3.672713E1,1.2152792E1,0E0,3.247834E1,0E0,0E0,0E0,0E0,0E0,0E0,0E0,0E0],"parents":[2147483647,0,0,1,1,2,2,3,3,4,4,6,6,8,8,9,9,10,10,13,13,15,15,16,16,18,18],"right_children":[2,4,6,8,10,-1,12,-1,14,16,18,-1,-1,20,-1,22,24,-1,26,-1,-1,-1,-1,-1,-1,-1,-1],"split_conditions":[9.351447E-1,1.228708E-1,1.6E0,8E0,1.23E1,8.884616E-3,1.2E1,-2.4260309E-2,2.9E1,1.4E0,1.022E2,3.2957073E-2,1.8110301E-2,1.17333336E2,5.0234667E-4,1.55E2,7.4542713E-1,2.8720938E-2,3.75E0,3.3898793E-2,1.0761298E-2,2.847962E-2,-9.491124E-3,5.136685E-3,-2.5687214E-2,-1.5006689E-2,2.23679E-2],"split_indices":[248,248,103,232,128,0,175,0,10,160,147,0,0,27,0,244,247,0,178,0,0,0,0,0,0,0,0],"split_type":[0,0,0,0,0,0,0,0,0,0,0,0,0,0,0,0,0,0,0,0,0,0,0,0,0,0,0],"sum_hessian":[7.657994E2,6.846608E2,8.1138535E1,1.1118442E2,5.7347644E2,1.8922535E1,6.2216003E1,1.9989807E1,9.119461E1,1.421463E2,4.313301E2,4.682921E1,1.5386795E1,7.57221E1,1.5472515E1,9.991096E1,4.223534E1,1.5123842E1,4.1620627E2,5.978357E1,1.5938527E1,6.730851E1,3.260245E1,2.2419912E1,1.9815428E1,3.960348E2,2.0171505E1],"tree_param":{"num_deleted":"0","num_feature":"249","num_nodes":"27","size_leaf_vector":"1"}},{"base_weights":[1.5052081E-2,-8.394277E-2,8.132161E-1,5.3753823E-1,-2.0483245E-1,2.865823E-2,6.2170033E-3,8.2228404E-1,-3.272537E-2,-3.95963E-2,-6.728477E-1,9.8186463E-1,5.0354055E-3,-2.1907063E-1,4.828079E-1,1.16690695E-2,-9.2703575E-1,3.4264643E-2,2.0832842E-2,-1.1980221E-2,1.1064497E-2,-1.2514123E-3,2.6882812E-2,-2.0568958E-3,-3.243028E-2],"categories":[],"categories_nodes":[],"categories_segments":[],"categories_sizes":[],"default_left":[0,0,0,0,0,0,0,0,0,0,0,0,0,0,0,0,0,0,0,0,0,0,0,0,0],"id":43,"left_children":[1,3,5,7,9,-1,-1,11,-1,13,15,17,-1,19,21,-1,23,-1,-1,-1,-1,-1,-1,-1,-1],"loss_changes":[6.05927E1,5.1188175E1,6.5417557E0,5.310493E1,4.3881226E1,0E0,0E0,9.313263E0,0E0,3.9934696E1,4.092614E1,1.3692093E0,0E0,3.398067E1,2.390544E1,0E0,1.5438301E1,0E0,0E0,0E0,0E0,0E0,0E0,0E0,0E0],"parents":[2147483647,0,0,1,1,2,2,3,3,4,4,7,7,9,9,10,10,11,11,13,13,14,14,16,16],"right_children":[2,4,6,8,10,-1,-1,12,-1,14,16,18,-1,20,22,-1,24,-1,-1,-1,-1,-1,-1,-1,-1],"split_conditions":[9.328E-1,1.228708E-1,1.05E0,1.66E1,2.88E1,2.865823E-2,6.2170033E-3,4.892E-1,-3.272537E-2,7.8E0,-7E-3,1.3944445E1,5.0354055E-3,1.0444444E0,5.069E-1,1.16690695E-2,-8.4E-3,3.4264643E-2,2.0832842E-2,-1.1980221E-2,1.1064497E-2,-1.2514123E-3,2.6882812E-2,-2.0568958E-3,-3.243028E-2],"split_indices":[248,248,104,97,141,0,0,35,0,146,105,139,0,62,248,0,86,0,0,0,0,0,0,0,0],"split_type":[0,0,0,0,0,0,0,0,0,0,0,0,0,0,0,0,0,0,0,0,0,0,0,0,0],"sum_hessian":[7.603623E2,6.777197E2,8.264257E1,1.0883514E2,5.688846E2,6.5613235E1,1.7029335E1,9.363589E1,1.5199255E1,4.225208E2,1.4636378E2,7.410642E1,1.952946E1,3.157716E2,1.067492E2,2.7837563E1,1.1852623E2,4.308757E1,3.1018852E1,2.4254823E2,7.322339E1,4.751623E1,5.9232967E1,1.8761477E1,9.9764755E1],"tree_param":{"num_deleted":"0","num_feature":"249","num_nodes":"25","size_leaf_vector":"1"}},{"base_weights":[3.8241476E-3,-9.270445E-2,8.2111615E-1,5.203555E-1,-2.1052718E-1,6.4915204E-3,9.7856575E-1,8.0786306E-1,-3.2817252E-2,-5.093983E-2,-6.819265E-1,3.2504544E-2,1.7206986E-2,9.5550483E-1,3.0347176E-3,-3.493432E-1,3.0442226E-1,1.2181622E-2,-9.122588E-1,1.5116536E-2,3.1595696E-2,4.2438726E-3,-1.7698182E-2,-1.6217735E-2,1.3617145E-2,-1.0567234E-3,-3.164468E-2],"categories":[],"categories_nodes":[],"categories_segments":[],"categories_sizes":[],"default_left":[0,0,0,0,0,0,0,0,0,0,0,0,0,0,0,0,0,0,0,0,0,0,0,0,0,0,0],"id":44,"left_children":[1,3,5,7,9,-1,11,13,-1,15,17,-1,-1,19,-1,21,23,-1,25,-1,-1,-1,-1,-1,-1,-1,-1],"loss_changes":[6.0080853E1,4.9127068E1,6.880871E0,5.2513332E1,4.265567E1,0E0,9.324379E-1,9.326256E0,0E0,4.572978E1,3.6914024E1,0E0,0E0,1.8859024E0,0E0,2.8009058E1,2.528219E1,0E0,1.4536575E1,0E0,0E0,0E0,0E0,0E0,0E0,0E0,0E0],"parents":[2147483647,0,0,1,1,2,2,3,3,4,4,6,6,7,7,9,9,10,10,13,13,15,15,16,16,18,18],"right_children":[2,4,6,8,10,-1,12,14,-1,16,18,-1,-1,20,-1,22,24,-1,26,-1,-1,-1,-1,-1,-1,-1,-1],"split_conditions":[9.328E-1,1.228708E-1,1.6E0,1.67E1,2.9E1,6.4915204E-3,1.2E1,-2.0412415E-1,-3.2817252E-2,4.702E-1,-7E-3,3.2504544E-2,1.7206986E-2,4.504E-1,3.0347176E-3,8.4E0,6.440036E-2,1.2181622E-2,-8.4E-3,1.5116536E-2,3.1595696E-2,4.2438726E-3,-1.7698182E-2,-1.6217735E-2,1.3617145E-2,-1.0567234E-3,-3.164468E-2],"split_indices":[248,248,103,97,141,0,175,230,0,122,105,0,0,122,0,127,246,0,86,0,0,0,0,0,0,0,0],"split_type":[0,0,0,0,0,0,0,0,0,0,0,0,0,0,0,0,0,0,0,0,0,0,0,0,0,0,0],"sum_hessian":[7.5485815E2,6.763786E2,7.847955E1,1.07524376E2,5.6885425E2,1.7586676E1,6.0892876E1,9.227477E1,1.5249605E1,4.271123E2,1.4174193E2,4.5114296E1,1.577858E1,7.539497E1,1.6879795E1,2.3263933E2,1.9447298E2,2.427064E1,1.1747128E2,1.6144207E1,5.9250767E1,7.6388115E1,1.5625122E2,2.8143002E1,1.6632997E2,1.7068226E1,1.0040306E2],"tree_param":{"num_deleted":"0","num_feature":"249","num_nodes":"27","size_leaf_vector":"1"}},{"base_weights":[3.7609503E-2,-6.068237E-2,8.491398E-1,-6.0927737E-1,4.096463E-2,2.8440524E-2,1.0563826E-2,-1.108027E0,5.10931E-1,1.6463499E-1,-5.4447633E-1,-4.1680943E-2,-4.3308263E-4,-5.9864568E-3,3.6454745E-2,-3.521074E-2,4.5502093E-1,3.1796694E-1,-9.8412305E-1,6.854149E-3,-1.4082515E-2,1.7915787E-2,-2.403906E-2,2.2795819E-2,-5.4480443E-3,4.8664995E-3,-4.0940814E-2],"categories":[],"categories_nodes":[],"categories_segments":[],"categories_sizes":[],"default_left":[0,0,0,0,0,0,0,0,0,0,0,0,0,0,0,0,0,0,0,0,0,0,0,0,0,0,0],"id":45,"left_children":[1,3,5,7,9,-1,-1,11,13,15,17,-1,-1,-1,-1,19,21,23,25,-1,-1,-1,-1,-1,-1,-1,-1],"loss_changes":[6.0330757E1,3.7713684E1,2.9579964E0,6.0362507E1,4.123835E1,0E0,0E0,2.229049E1,1.7673197E1,2.7517681E1,3.8446682E1,0E0,0E0,0E0,0E0,3.240291E1,3.5358883E1,8.127863E0,2.9787498E1,0E0,0E0,0E0,0E0,0E0,0E0,0E0,0E0],"parents":[2147483647,0,0,1,1,2,2,3,3,4,4,7,7,8,8,9,9,10,10,15,15,16,16,17,17,18,18],"right_children":[2,4,6,8,10,-1,-1,12,14,16,18,-1,-1,-1,-1,20,22,24,26,-1,-1,-1,-1,-1,-1,-1,-1],"split_conditions":[3.558721E0,7.2895E-1,2E1,-3.478925E-2,3.28E0,2.8440524E-2,1.0563826E-2,-1.1E-2,1.85E-2,6.5182704E-1,3.3636364E-1,-4.1680943E-2,-4.3308263E-4,-5.9864568E-3,3.6454745E-2,6.57E-1,4.62E1,7.8E-3,-6E0,6.854149E-3,-1.4082515E-2,1.7915787E-2,-2.403906E-2,2.2795819E-2,-5.4480443E-3,4.8664995E-3,-4.0940814E-2],"split_indices":[1,25,175,245,104,0,0,95,64,248,82,0,0,0,0,44,28,77,173,0,0,0,0,0,0,0,0],"split_type":[0,0,0,0,0,0,0,0,0,0,0,0,0,0,0,0,0,0,0,0,0,0,0,0,0,0,0],"sum_hessian":[7.5008154E2,6.703679E2,7.971362E1,1.0369313E2,5.666748E2,6.446935E1,1.5244272E1,7.194892E1,3.1744215E1,4.6945557E2,9.721924E1,5.6578304E1,1.5370612E1,1.6303375E1,1.544084E1,2.785084E2,1.9094714E2,3.278228E1,6.443696E1,1.7343968E2,1.0506873E2,1.7269246E2,1.8254683E1,1.7160975E1,1.5621305E1,1.6149954E1,4.8287006E1],"tree_param":{"num_deleted":"0","num_feature":"249","num_nodes":"27","size_leaf_vector":"1"}},{"base_weights":[1.2148817E-2,-1.9020028E-1,3.776083E-1,2.7283937E-1,-3.0807418E-1,5.690095E-1,-4.0672517E-1,4.831299E-1,-1.5373662E-2,4.997237E-1,-4.139873E-1,-2.9187035E-2,7.0095843E-1,-3.650874E-2,1.6626331E-1,6.3686356E-2,3.286254E-2,1.0546325E-3,2.950642E-2,-6.8248916E-1,-1.0029779E-1,8.397872E-1,8.8972546E-2,-1.4380113E-2,2.3499114E-2,-1.8711815E-2,1.2584476E-2,5.5041574E-3,-3.845554E-2,-2.5127254E-2,1.9119417E-2,2.8097332E-2,1.702301E-3,-2.0240452E-2,2.15358E-2],"categories":[],"categories_nodes":[],"categories_segments":[],"categories_sizes":[],"default_left":[0,0,0,0,0,0,0,0,0,0,0,0,0,0,0,0,0,0,0,0,0,0,0,0,0,0,0,0,0,0,0,0,0,0,0],"id":46,"left_children":[1,3,5,7,9,11,13,15,-1,17,19,-1,21,-1,23,25,-1,-1,-1,27,29,31,33,-1,-1,-1,-1,-1,-1,-1,-1,-1,-1,-1,-1],"loss_changes":[5.588335E1,2.6674465E1,4.0975246E1,1.6842945E1,3.3618095E1,4.5595818E1,2.5665073E1,1.9918795E1,0E0,9.874574E0,2.8669468E1,0E0,1.6732292E1,0E0,1.39946375E1,1.2585371E1,0E0,0E0,0E0,9.6778534E1,8.916132E1,1.2025124E1,2.0183676E1,0E0,0E0,0E0,0E0,0E0,0E0,0E0,0E0,0E0,0E0,0E0,0E0],"parents":[2147483647,0,0,1,1,2,2,3,3,4,4,5,5,6,6,7,7,9,9,10,10,12,12,14,14,15,15,19,19,20,20,21,21,22,22],"right_children":[2,4,6,8,10,12,14,16,-1,18,20,-1,22,-1,24,26,-1,-1,-1,28,30,32,34,-1,-1,-1,-1,-1,-1,-1,-1,-1,-1,-1,-1],"split_conditions":[8E0,-1.2E0,2.85E0,1.75E-1,2.39E1,1.2552992E-1,4.41E-1,5.2E0,-1.5373662E-2,6.7867666E-1,3.04E-2,-2.9187035E-2,9.8E0,-3.650874E-2,-1.5E-2,-4.5E-1,3.286254E-2,1.0546325E-3,2.950642E-2,-2.0412415E-1,6.3E-2,2.92E1,-7.8E-3,-1.4380113E-2,2.3499114E-2,-1.8711815E-2,1.2584476E-2,5.5041574E-3,-3.845554E-2,-2.5127254E-2,1.9119417E-2,2.8097332E-2,1.702301E-3,-2.0240452E-2,2.15358E-2],"split_indices":[0,92,93,58,130,247,35,11,0,247,245,0,127,0,86,63,0,0,0,230,98,130,76,0,0,0,0,0,0,0,0,0,0,0,0],"split_type":[0,0,0,0,0,0,0,0,0,0,0,0,0,0,0,0,0,0,0,0,0,0,0,0,0,0,0,0,0,0,0,0,0,0,0],"sum_hessian":[7.5098425E2,4.8344608E2,2.6753818E2,9.704669E1,3.8639938E2,2.1580641E2,5.173176E1,7.7456535E1,1.9590157E1,4.3599293E1,3.428001E2,1.5827807E1,1.999786E2,2.0715239E1,3.1016518E1,4.7568253E1,2.9888287E1,2.3652987E1,1.9946304E1,1.829213E2,1.598788E2,1.6199535E2,3.798326E1,1.5137998E1,1.5878521E1,1.5422345E1,3.2145905E1,7.518333E1,1.0773797E2,8.002537E1,7.985343E1,1.4348427E2,1.8511082E1,1.6872463E1,2.1110798E1],"tree_param":{"num_deleted":"0","num_feature":"249","num_nodes":"35","size_leaf_vector":"1"}},{"base_weights":[1.1769647E-3,-9.671167E-2,7.730251E-1,-2.2920744E-1,3.3985195E-1,2.8105566E-4,9.423516E-1,-3.2242894E-2,-7.5565636E-1,-2.3772601E-2,5.836225E-1,3.136982E-2,1.5274774E-2,3.505019E-1,-5.2539164E-1,-1.167147E0,5.312497E-1,-2.1768505E-2,7.8803146E-1,-8.0080173E-4,2.2231184E-2,-5.190597E-3,-4.350449E-2,-4.4625007E-2,1.4854357E-2,3.7932016E-2,-1.1470638E-2,2.900343E-2,-0E0],"categories":[],"categories_nodes":[],"categories_segments":[],"categories_sizes":[],"default_left":[0,0,0,0,0,0,0,0,0,0,0,0,0,0,0,0,0,0,0,0,0,0,0,0,0,0,0,0,0],"id":47,"left_children":[1,3,5,7,9,-1,11,13,15,-1,17,-1,-1,19,21,23,25,-1,27,-1,-1,-1,-1,-1,-1,-1,-1,-1,-1],"loss_changes":[5.743247E1,3.8986E1,1.0764992E1,5.33407E1,4.4117676E1,0E0,1.5888748E0,7.193063E1,7.572952E1,0E0,3.6038982E1,0E0,0E0,3.1802172E1,5.333047E1,5.8811264E1,2.4802929E1,0E0,1.5945045E1,0E0,0E0,0E0,0E0,0E0,0E0,0E0,0E0,0E0,0E0],"parents":[2147483647,0,0,1,1,2,2,3,3,4,4,6,6,7,7,8,8,10,10,13,13,14,14,15,15,16,16,18,18],"right_children":[2,4,6,8,10,-1,12,14,16,-1,18,-1,-1,20,22,24,26,-1,28,-1,-1,-1,-1,-1,-1,-1,-1,-1,-1],"split_conditions":[2.5E1,8.0133426E-1,2.44E1,1.55E1,-2.3E0,2.8105566E-4,2.01E0,-3.14E-2,3.04E-2,-2.3772601E-2,4.165137E-2,3.136982E-2,1.5274774E-2,1.1E-2,1.5714286E-1,1.4285715E0,2.6666668E-1,-2.1768505E-2,8.0475E-1,-8.0080173E-4,2.2231184E-2,-5.190597E-3,-4.350449E-2,-4.4625007E-2,1.4854357E-2,3.7932016E-2,-1.1470638E-2,2.900343E-2,-0E0],"split_indices":[176,248,10,97,67,0,154,245,245,0,245,0,0,64,58,62,239,0,134,0,0,0,0,0,0,0,0,0,0],"split_type":[0,0,0,0,0,0,0,0,0,0,0,0,0,0,0,0,0,0,0,0,0,0,0,0,0,0,0,0,0],"sum_hessian":[7.534752E2,6.6987933E2,8.3595856E1,5.1516534E2,1.5471404E2,1.58763685E1,6.771949E1,3.7686002E2,1.3830531E2,2.6392664E1,1.2832137E2,5.1836998E1,1.588249E1,2.1216429E2,1.6469572E2,1.05114105E2,3.3191204E1,1.6442142E1,1.1187922E2,1.084828E2,